tree
version=v4
num_class=1
num_tree_per_iteration=1
label_index=0
max_feature_idx=4
objective=binary sigmoid:1
feature_names=RSI_14 RSI_21 MACD_Diff Dist_EMA_20 BB_Width
feature_infos=[0:100] [0:100] [-16.135037149062384:31.361721090301771] [-0.97196840731804146:2.864445641868826] [0:13.385438289465574]
tree_sizes=3422 3533 3540 3542 3542 3551 3562 3539 3552 3560 3556 3554 3557 3539 3574 3548 3550 3537 3549 3563 3576 3557 3536 3576 3546 3559 3570 3584 3557 3579 3552 3574 3556 3552 3562 3526 3546 3535 3531 3552 3542 3564 3537 3567 3578 3557 3532 3509 3526 3569 3561 3561 3541 3569 3536 3561 3521 3560 3498 3464 3497 3489 3460 3515 3451 3491 3452 3529 3508 3493 3522 3497 3460 3479 3426 3489 3441 3565 3528 3558 3503 3535 3515 3526 3462 3466 3527 3540 3486 3477 3549 3521 3442 3516 3468 3437 3438 3441 3432 3439

Tree=0
num_leaves=31
num_cat=0
split_feature=4 4 3 3 4 3 0 4 0 1 3 4 3 3 1 4 0 3 2 0 0 2 0 4 3 4 1 0 3 0
split_gain=10073.5 3331.06 769.269 786.54 564.543 478.255 406.146 236.511 198.169 170.217 161.011 140.357 145.097 143.228 109.839 103.193 87.41 84.3536 82.3723 81.6056 82.5678 68.9592 68.5439 61.5553 56.9081 52.7829 50.4514 55.5688 73.4939 50.1475
threshold=0.045529046777069183 0.14332298531280133 -0.08710721798299649 0.1195417041918091 0.0047014869725578992 0.02437874548758957 20.022804967521903 0.10335480842200033 7.1784829322600254 84.567641153958235 -0.1258644441643311 0.27205731286454554 0.069005244707757665 -0.050567593864035497 28.149255284171769 1.0131070765735728 33.252005285879477 0.074604496719089128 0.040190892117643942 21.238041425057308 59.373009904102837 0.001106397370926852 65.357600994662661 0.055715479830556053 -0.044198565714360004 0.033995602913275712 62.412866371210555 45.061288222774714 -0.039583519262219126 71.844523506892912
decision_type=2 2 2 2 2 2 2 2 2 2 2 2 2 2 2 2 2 2 2 2 2 2 2 2 2 2 2 2 2 2
left_child=4 5 8 6 21 7 24 14 -3 11 15 12 13 -8 -2 -10 -15 22 -5 -9 -21 -1 -7 -16 -4 -6 27 28 -25 -18
right_child=1 2 3 18 25 17 9 19 10 -11 -12 -13 -14 16 23 -17 29 -19 -20 20 -22 -23 -24 26 -26 -27 -28 -29 -30 -31
leaf_value=-1.1834539871493732 -1.15828293753769 -1.1393596644471475 -1.1415712063490424 -1.0800484674038966 -1.1613833172817221 -1.1139824143320725 -1.1043843828476709 -1.1505873084762661 -1.0668138011894122 -1.1486420264202561 -1.0919523420464752 -1.1052263808482474 -1.1018657332609023 -1.1379306171680124 -1.1434563624159151 -1.126090254655344 -1.1152926662026523 -1.0941975073051606 -1.094634660103458 -1.1246495658668214 -1.1523804626437706 -1.1694352535894237 -1.1263428385085774 -1.1236453102236592 -1.1736707893309308 -1.1480242200092055 -1.1534547693974393 -1.1307315215326845 -1.1400374971321572 -1.1340720177215895
leaf_weight=5252.5993190705776 528.22227202355862 161.26239009201527 416.94937139749527 1625.3989926725626 1464.1366025805473 3711.997312232852 2959.7480688989162 331.96723930537701 1371.0080351680517 304.1953007131815 1967.9195686429739 7686.7171635478735 2559.276714399457 455.08950039744377 1919.5963954925537 77.576281800866127 15886.844898536801 410.65439864993095 2392.8302291035652 9948.8341350108385 275.86792334914207 1053.1119114160538 1607.2546594589949 812.79206946492195 206.4380768686533 1493.7600037455559 321.04361012578011 7797.4346254020929 4307.9831144213676 363.62724930047989
leaf_count=28370 2853 871 2252 8779 7908 20049 15986 1793 7405 1643 10629 41517 13823 2458 10368 419 85807 2218 12924 53735 1490 5688 8681 4390 1115 8068 1734 42115 23268 1964
internal_value=-1.12364 -1.11719 -1.10728 -1.10954 -1.17266 -1.12912 -1.11225 -1.13198 -1.0852 -1.11143 -1.08264 -1.11105 -1.11306 -1.11452 -1.13587 -1.06999 -1.11632 -1.11603 -1.08873 -1.12619 -1.1254 -1.18111 -1.11772 -1.13509 -1.1522 -1.15464 -1.13388 -1.13339 -1.13744 -1.11571
internal_weight=79672.1 70408.5 38434.9 34857.1 9263.61 31973.6 30838.9 26243.7 3577.77 30215.5 3416.5 29911.3 22224.6 19665.3 15687.1 1448.58 16705.6 5729.91 4018.23 10556.7 10224.7 6305.71 5319.25 15158.8 623.387 2957.9 13239.3 12918.2 5120.78 16250.5
internal_count=430320 380286 207592 188268 50034 172694 166565 141746 19324 163198 18453 161555 120038 106215 84728 7824 90229 30948 21703 57018 55225 34058 28730 81875 3367 15976 71507 69773 27658 87771
is_linear=0
shrinkage=1


Tree=1
num_leaves=31
num_cat=0
split_feature=4 4 3 3 3 4 0 4 0 1 3 4 3 3 1 0 4 4 0 0 3 2 3 2 1 0 0 3 3 0
split_gain=9314.53 3097.92 669.558 687.763 453.786 385.911 367.74 237.65 173.105 153.704 136.092 127.581 127.127 150.794 104.563 90.1641 88.1177 80.1153 76.1304 79.6745 74.4444 70.3053 63.2378 61.0893 59.8889 56.5544 54.9086 54.0867 51.188 46.9616
threshold=0.041764422619069007 0.14332298531280133 -0.08710721798299649 0.1195417041918091 0.02437874548758957 2.6373341676923313e-07 20.022804967521903 0.10335480842200033 7.1784829322600254 84.567641153958235 -0.1258644441643311 0.31798401778835866 0.060799449985668587 -0.056920710352224867 28.149255284171769 32.893030657653973 1.0131070765735728 0.055715479830556053 28.884126990312051 62.598427080514575 0.076713814225484442 0.040190892117643942 -0.054249746220455204 0.0087531534016035296 60.171228170975958 61.481235275863803 39.166858611232634 -0.044198565714360004 0.045457508511324372 71.374813262434628
decision_type=2 2 2 2 2 2 2 2 2 2 2 2 2 2 2 2 2 2 2 2 2 2 2 2 2 2 2 2 2 2
left_child=5 4 8 6 7 23 27 14 -3 11 16 12 13 -8 -2 -15 -10 -16 -9 22 25 29 -20 -1 -17 -6 -24 -4 -27 -5
right_child=1 2 3 21 20 -7 9 18 10 -11 -12 -13 -14 15 17 24 -18 -19 19 -21 -22 -23 26 -25 -26 28 -28 -29 -30 -31
leaf_value=-0.058392965415315981 -0.033669910135630948 -0.015053955970820205 -0.01719244908434182 0.026129413340327451 0.01142880525446039 -0.033665054066167169 0.020110510346875214 -0.017875744434421369 0.05244004133343208 -0.024063502824142026 0.02961777376731713 0.019361347004547513 0.018419278715887204 -0.011399525195324195 -0.019590820894453253 0.0090902980464195628 -0.0023271464356220762 -0.0097730361410621521 0.01521257618825547 -0.038109328721635305 0.029127294253387878 0.027148171241650629 -0.010680270510033814 -0.039605200540285962 0.00060549065125272078 -0.0051148121502236346 -4.0488724764941431e-05 -0.048807415880556274 0.0079477724049033891 0.04541557739002744
leaf_weight=5362.1216084361076 541.54246062040329 159.96941795945168 413.13506782054901 423.69983813166618 2409.4013828337193 2583.8553575277328 2621.7379345595837 740.9887972176075 1410.4201624542475 300.31213876605034 1999.5682646781206 4797.0079921782017 4193.7251046895981 623.09597456455231 2467.1763637661934 15464.389430642128 77.479593619704247 13170.160392418504 586.2428240776062 144.48326110839844 362.48037058115005 2428.0670687556267 1441.735430046916 470.64433014392853 2402.8525275886059 1564.6911872029305 7629.5036603361368 201.15201346576214 1440.3742443621159 1237.6047080755234
leaf_count=29857 2977 871 2252 2239 12950 14213 14024 4028 7405 1643 10629 25669 22444 3371 13469 83118 419 71507 3168 792 1929 12924 7791 2603 12929 8437 41239 1115 7768 6540
internal_value=-7.50843e-06 0.00586835 0.0154156 0.0132972 -0.00551656 -0.0497511 0.0107561 -0.00826368 0.0358051 0.01153 0.038138 0.0118851 0.0104679 0.00888839 -0.0120701 0.00729721 0.0495881 -0.011322 -0.00242253 -0.00125433 0.00719053 0.0325711 -0.000702954 -0.056877 0.00794923 0.00572194 -0.00173152 -0.027545 0.00114629 0.0404968
internal_weight=79669.6 71253 38754.2 35106.8 32498.8 8416.62 31017.4 26721.8 3647.44 30403.1 3487.47 30102.8 25305.8 21112.1 16178.9 18490.3 1487.9 15637.3 10543 9801.97 5776.95 4089.37 9657.48 5832.77 17867.2 5414.47 9071.24 614.287 3005.07 1661.3
internal_count=430320 383647 207592 188268 176055 46673 166565 144971 19324 163198 18453 161555 135886 113442 87953 99418 7824 84976 57018 52990 31084 21703 52198 32460 96047 29155 49030 3367 16205 8779
is_linear=0
shrinkage=0.05


Tree=2
num_leaves=31
num_cat=0
split_feature=4 4 3 3 3 4 0 4 3 0 0 0 1 3 4 0 3 0 1 3 0 4 3 2 3 0 2 0 3 3
split_gain=8617.86 2773.15 585.732 569.016 410.954 377.013 312.504 218.813 216.691 138.718 136.122 135.33 135.672 115.064 137.983 76.6517 66.0643 65.2621 65.2046 65.1508 102.561 65.0394 72.7104 61.599 88.7226 60.6334 60.4768 55.3279 47.9984 45.3482
threshold=0.041764422619069007 0.14332298531280133 -0.1099718191348248 0.1195417041918091 0.02437874548758957 2.6373341676923313e-07 16.959816217993239 0.083925266518895536 -0.06303835705845813 21.238041425057308 7.1784829322600254 30.870740991682833 84.567641153958235 0.053769332627672639 0.38480890575957644 62.598427080514575 0.074604496719089128 42.549608919524097 60.171228170975958 -0.048371468780457491 39.166858611232634 1.0131070765735728 -0.15199212660291719 0.1472327806114189 0.17284391689367085 64.519226386849894 0.0010009077915077347 65.357600994662661 -0.044198565714360004 -0.03786777373114205
decision_type=2 2 2 2 2 2 2 2 2 2 2 2 2 2 2 2 2 2 2 2 2 2 2 2 2 2 2 2 2 2
left_child=5 4 10 6 7 26 28 17 -8 -9 -3 -10 13 14 18 19 27 29 -13 -11 -21 22 -12 24 -5 -19 -1 -6 -4 -2
right_child=1 2 3 23 16 -7 8 9 11 15 21 12 -14 -15 -16 -17 -18 25 -20 20 -22 -23 -24 -25 -26 -27 -28 -29 -30 -31
leaf_value=-0.058094028225946809 -0.0053799192368110468 -0.013378437856926615 -0.016248346713229268 0.027214753030566963 0.0086467792358994947 -0.032570868253558372 0.022675047705303226 -0.029423290301755525 -0.012555199186861574 0.0072141347772437707 0.055227457613043388 0.0089414843042110361 -0.023157405941454066 0.016256755352309939 0.026644891256740928 -0.029881929258915516 0.025843829491508853 -0.010261932709478987 -0.00053908226991953873 -0.013938927067172639 -0.0022034168751105527 -0.0025257632860823209 0.036088646767753058 0.021711294599319864 0.045307184955871833 -0.033723668926659935 -0.044288415621944389 -0.0023997019831347049 -0.047765810948158946 -0.022860205658578162
leaf_weight=4701.9121217727661 439.96971544623375 116.44848082959652 411.48704521358013 1640.9590304791927 3750.9596431255341 2538.3006949424744 3793.0281145274639 531.8842436671257 652.6996414065361 1417.3806117475033 833.74586923420429 17023.911424636841 296.55702085793018 7223.8329796344042 1038.7555494904518 269.90698884427547 422.43498051166534 7121.435383901 2029.8854807466269 2204.6863580048084 11968.562811911106 78.53287747502327 1225.9716303944588 1359.8803587853909 1154.2364787906408 286.45646426081657 954.25683611631393 1624.4457989484072 170.99899616837502 2367.7001102864742
leaf_count=27040 2409 639 2246 8549 20086 14213 20025 2952 3536 7662 4269 91014 1643 38359 5505 1497 2219 38944 10905 12010 64912 425 6350 7142 6012 1577 5420 8779 973 13008
internal_value=-1.40926e-05 0.00555536 0.0145282 0.0130124 -0.00525748 -0.0485803 0.010794 -0.00788582 0.0114535 -0.00430642 0.039266 0.00994763 0.0104795 0.0108447 0.00889893 -0.00346412 0.00680475 -0.0136295 0.00793148 -0.00300678 -0.00402891 0.042133 0.0438358 0.0304395 0.0346858 -0.0111692 -0.0557649 0.00530854 -0.0255009 -0.020121
internal_weight=79651.2 71456.8 39050.9 36796.2 32405.8 8194.47 32641.2 26608 32058.7 16392.4 2254.7 28265.6 27612.9 27316.4 20092.6 15860.5 5797.84 10215.6 19053.8 15590.6 14173.2 2138.25 2059.72 4155.08 2795.2 7407.89 5656.17 5375.41 582.486 2807.67
internal_count=430320 383647 207592 195909 176055 46673 174206 144971 170987 89033 11683 150962 147426 145783 107424 86081 31084 55938 101919 84584 76922 11044 10619 21703 14561 40521 32460 28865 3219 15417
is_linear=0
shrinkage=0.05


Tree=3
num_leaves=31
num_cat=0
split_feature=4 4 3 3 3 4 0 4 3 0 1 3 4 1 0 0 4 2 3 3 0 3 2 3 0 4 3 3 0 1
split_gain=7976.23 2488.28 489.054 470.96 411.274 369.573 260.685 254.495 171.173 129.835 110.932 100.911 123.899 97.0864 87.6481 88.9308 75.9885 67.635 61.3307 59.8994 59.2603 57.433 56.7118 54.9214 52.7617 52.1145 76.4016 51.3768 60.6619 50.7397
threshold=0.041764422619069007 0.15225672171184076 -0.10420340812717981 0.1195417041918091 0.027933254388470278 0.0047014869725578992 20.022804967521903 0.10335480842200033 -0.06303835705845813 7.1784829322600254 84.567641153958235 0.053769332627672639 0.38480890575957644 28.149255284171769 30.870740991682833 62.367975405088977 0.055715479830556053 0.001106397370926852 -0.044198565714360004 -0.048371468780457491 30.870740991682833 -0.02622393367418448 0.041902568033150241 -0.052955309342340946 39.166858611232634 1.0131070765735728 -0.15199212660291719 0.074604496719089128 65.357600994662661 65.530331661814486
decision_type=2 2 2 2 2 2 2 2 2 2 2 2 2 2 2 2 2 2 2 2 2 2 2 2 2 2 2 2 2 2
left_child=5 4 9 6 7 17 18 13 -8 -3 11 12 20 -2 23 19 -15 -1 -4 -16 -10 -22 -5 -9 -21 26 -11 28 -6 -18
right_child=1 2 3 22 27 -7 8 14 10 25 -12 -13 -14 16 15 -17 29 -19 -20 24 21 -23 -24 -25 -26 -27 -28 -29 -30 -31
leaf_value=-0.056578222028906125 -0.031886041583176337 -0.014466182120636004 -0.011519740573639727 0.03533531925528955 0.010309426431838489 -0.030101648627618473 0.02202795506272821 -0.0042534479585001391 -0.0097963481498805211 0.051206808898743288 -0.021962874640352219 0.015380452292538357 0.02492262010522462 -0.018121503622363384 0.012393741462427905 -0.029928853593188399 -0.0081665191503147352 -0.042150943842612629 -0.046400698162404254 -0.01001887338326746 0.012412099365513763 0.0059782589212759012 0.023556711253176977 -0.025778912946337898 0.00078188050640341583 -0.0020879304624123441 0.032520787174110125 0.022502838357810605 -0.0012389768733833779 -0.031574998011753855
leaf_weight=4780.7408920824528 525.98663094639778 124.30774021148682 491.23527140915394 1752.0246466845274 3441.0272932201624 2216.8201889544725 3292.855653077364 634.26435405015945 491.31177148222923 854.04899001121521 269.93042013049126 6986.9689843058586 1060.6616140156984 2466.5956630408764 978.5260988175869 244.23969618976116 13236.71627818048 978.64008702337742 169.50506800413132 1288.2113592326641 4857.6062813997269 12131.013330057263 2452.4045100212097 556.18036831915379 9248.0040139555931 78.817511975765228 1521.673256739974 555.25639364123344 1698.3944704383612 235.61567643284798
leaf_count=28370 2977 687 2689 8936 18349 12615 17191 3443 2670 4264 1514 36801 5549 13696 5230 1361 72504 5688 988 7027 25827 64671 12708 3079 49904 427 7776 2888 9178 1313
internal_value=-1.99001e-05 0.00526053 0.0143951 0.0128009 -0.00424493 -0.0474495 0.0105872 -0.00662605 0.0112926 0.0353865 0.00992233 0.0102595 0.00832966 -0.0107506 -0.00138179 -7.29491e-05 -0.0100531 -0.0541267 -0.020468 0.000560326 0.00732282 0.00781791 0.028465 -0.0143102 -0.000538675 0.0379112 0.0392382 0.00805411 0.00649309 -0.00857591
internal_weight=79619.6 71643.4 36534.4 33955.5 35109 7976.2 29751.1 29414.3 29090.3 2578.85 25797.5 25527.6 18540.6 16464.9 12949.4 11759 15938.9 5759.38 660.74 11514.7 17479.9 16988.6 4204.43 1190.44 10536.2 2454.54 2375.72 5694.68 5139.42 13472.3
internal_count=430320 383647 192698 179544 190949 46673 157900 160534 154223 13154 137032 135518 98717 90490 70044 63522 87513 34058 3677 62161 93168 90498 21644 6522 56931 12467 12040 30415 27527 73817
is_linear=0
shrinkage=0.05


Tree=4
num_leaves=31
num_cat=0
split_feature=4 4 3 3 3 0 4 4 1 1 0 3 4 3 3 3 2 4 0 0 0 2 0 3 0 3 1 1 3 0
split_gain=7397.24 2320.73 460.493 477.966 353.199 272.734 234.254 211.266 135.923 126.948 120.685 91.332 87.5698 81.9657 76.8018 98.6869 71.652 68.564 65.7819 60.8561 61.4312 60.5633 59.4214 55.0958 87.1403 53.134 53.1218 49.5094 46.6949 45.8472
threshold=0.036970575548296247 0.14332298531280133 -0.08710721798299649 0.096565828690091449 0.02437874548758957 20.022804967521903 2.6373341676923313e-07 0.083925266518895536 76.874729245336837 1.1273136815498506 21.238041425057308 -0.13666835423879223 0.27205731286454554 0.14408908034722676 -0.050567593864035497 0.050057901861511621 0.1472327806114189 0.62643400538360383 62.598427080514575 42.719947510537729 64.519226386849894 0.0087531534016035296 33.252005285879477 -0.048371468780457491 39.166858611232634 0.076713814225484442 21.670146977120329 59.121167195059634 0.01050000740150118 61.481235275863803
decision_type=2 2 2 2 2 2 2 2 2 2 2 2 2 2 2 2 2 2 2 2 2 2 2 2 2 2 2 2 2 2
left_child=6 4 9 5 7 -4 21 19 12 -3 -9 17 14 -5 -7 22 -15 -11 23 -2 28 -1 -16 -12 -25 29 -13 -24 -21 -6
right_child=1 2 3 13 25 8 -8 10 -10 11 18 26 -14 16 15 -17 -18 -19 -20 20 -22 -23 27 24 -26 -27 -28 -29 -30 -31
leaf_value=-0.055296739227597536 -0.019059233086387222 -0.046765525479116422 -0.02505554289442842 0.018323479500710269 0.0099293619347892714 0.015461607731083194 -0.033245686102988406 -0.027659999925641932 -0.017666543831721889 0.047786955254765943 0.0066680930994635935 -0.00070372430367751822 0.014584386096908484 0.035711401262649656 -0.012873451832539854 0.014100384946211193 0.01941499850382827 0.021352807671421135 -0.027969641596580466 -0.011810161533574698 -0.032444666635794144 -0.03591134122169054 0.0067317487919746569 -0.012851435533258328 -0.0019717600721355158 0.024253414444142689 0.026962029589382076 -0.0021597844524865414 -0.0021875383086711357 0.00072771690820056705
leaf_weight=4873.6200525164604 2954.5596543252468 53.87316370010376 591.57319287955761 3157.1138821393251 2443.1941083669662 3056.3111118972301 1901.9722802340984 517.49413459002972 461.98658894002438 983.4370085299015 1424.6703219860792 187.90168464183807 6888.493496760726 1898.2401368021965 447.38913512229919 3801.1947504431009 1046.2815157026052 326.82700271904469 261.94639953970909 5726.4453784823418 309.14362080395222 439.21262156963348 12626.803794756532 2175.8787040114403 11939.309018924832 376.31906519830227 2265.6209985911846 1787.1650888472795 1616.6529006659985 3035.6730891913176
leaf_count=29857 16528 300 3367 16319 12958 15986 11060 2952 2537 4851 7662 990 36048 9572 2458 19962 5377 1644 1497 31738 1755 2603 67072 12010 64912 1929 11539 9570 8943 16324
internal_value=-2.49213e-05 0.0047887 0.0129377 0.0111756 -0.00505039 0.00855387 -0.0483035 -0.00747058 0.00923783 0.0294443 -0.0039 0.0305351 0.00967232 0.0239201 0.00811437 0.00691114 0.0299208 0.0411933 -0.00312188 -0.0129642 -0.0106109 -0.0536941 0.00507229 -0.00270304 -0.00364888 0.00607931 0.0248433 0.0056293 -0.00969165 0.00483101
internal_weight=79576.3 72361.5 39580.2 35762.6 32781.3 29660.9 7214.8 26926.1 29069.3 3817.66 16319.3 3763.79 28607.4 6101.64 21718.9 18662.6 2944.52 1310.26 15801.8 10606.8 7652.24 5312.83 14861.4 15539.9 14115.2 5855.19 2453.52 14414 7343.1 5478.87
internal_count=430320 386800 207592 188268 179208 157000 43520 147997 153633 19324 89033 19024 151096 31268 115048 99062 14949 6495 86081 58964 42436 32460 79100 84584 76922 31211 12529 76642 40681 29282
is_linear=0
shrinkage=0.05


Tree=5
num_leaves=31
num_cat=0
split_feature=4 4 3 3 3 0 4 4 1 1 0 3 0 3 4 3 3 2 2 4 0 0 0 3 3 0 1 3 0 1
split_gain=6859.58 2082.51 413.948 430.873 313.028 253.321 230.635 186.278 125.317 114.18 105.67 86.3293 87.4163 79.1021 72.3667 71.3045 66.2283 63.436 60.1411 59.1219 54.3624 52.2553 68.8831 51.215 49.1726 81.2269 48.0586 46.3091 67.7306 45.0329
threshold=0.036970575548296247 0.14141725840038516 -0.08710721798299649 0.096565828690091449 0.021685306632585347 22.166913506749705 2.6373341676923313e-07 0.083925266518895536 76.874729245336837 1.1273136815498506 21.238041425057308 -0.059859775932419507 32.133909938935062 -0.13666835423879223 0.35242990764214471 0.14408908034722676 0.053769332627672639 0.2446563427317924 0.0010009077915077347 0.62643400538360383 59.373009904102837 62.367975405088977 45.672706502370012 -0.044198565714360004 -0.048371468780457491 38.944155668658347 21.670146977120329 0.043399926828136433 61.481235275863803 60.171228170975958
decision_type=2 2 2 2 2 2 2 2 2 2 2 2 2 2 2 2 2 2 2 2 2 2 2 2 2 2 2 2 2 2
left_child=6 4 9 5 7 23 18 21 11 -3 -9 -7 -13 19 16 -5 29 -17 -1 -11 24 22 -2 -4 -12 -26 -15 28 -6 -14
right_child=1 2 3 15 27 8 -8 10 -10 13 20 12 14 26 -16 17 -18 -19 -20 -21 -22 -23 -24 -25 25 -27 -28 -29 -30 -31
leaf_value=-0.055178325018412425 -0.016818210320611478 -0.045591323582774783 -0.01272819930377346 0.017281778396280773 0.0067118863660488711 0.017358007139137769 -0.032197232898890725 -0.02666425653594709 -0.017033321695348092 0.044483910064827603 0.0063497269095882589 -0.010410287348202209 0.0073115201668018355 -0.00090625968288059709 0.016725953527037367 0.032446761467092605 0.013235208663082369 0.015995931819761753 -0.040854792917853246 0.02008839618274276 -0.022854365624390579 -0.031919508488251778 -0.008402429202484232 -0.042024179111064201 -0.012879291210979475 -0.0020010557176452248 0.025351517218675335 0.010656656746474858 -0.0064890176366787086 -0.00073128661433186721
leaf_weight=4260.2130341529846 4243.0291160196066 52.531993642449379 500.13826087117195 3192.2036071568727 2593.9285200089216 2860.4558488279581 1866.6240228414536 496.07772006094456 465.75713883340359 1004.285547927022 1349.2363606095314 615.44180132448673 16775.164688900113 188.53729325532913 2508.2494345009327 2183.683887436986 4495.9912141412497 800.94011074304581 885.09897378087044 329.94532792270184 343.92860884964466 340.36628748476505 5694.8307554572821 212.5987668633461 2027.3123113960028 11175.814296498895 2300.9807616472244 2264.9847904741764 1553.6570263952017 1941.8943851739168
leaf_count=27040 23889 300 2783 16358 13800 14761 11060 2874 2581 4855 7233 3357 88692 994 12965 10870 23383 4079 5420 1644 1950 1952 31699 1276 11267 60831 11578 11997 8435 10397
internal_value=-2.93231e-05 0.00453718 0.0120855 0.010438 -0.00497468 0.00798999 -0.0472526 -0.00744312 0.00869777 0.0276219 -0.00396263 0.00910824 0.00821222 0.0286277 0.00865781 0.0224763 0.00778602 0.0280321 -0.0527144 0.0384511 -0.00320662 -0.0126554 -0.0119956 -0.0214668 -0.00274227 -0.00367139 0.023363 0.00490686 0.00176692 0.00647708
internal_weight=79523.9 72512 40428.8 36552.5 32083.2 30375.7 7011.94 25670.6 29663 3876.28 15392.4 29197.2 26336.7 3823.75 25721.3 6176.83 23213.1 2984.62 5145.31 1334.23 14896.3 10278.2 9937.86 712.737 14552.4 13203.1 2489.52 6412.57 4147.59 18717.1
internal_count=430320 386800 210873 191502 175927 160195 43520 141695 156136 19371 84155 153555 138794 19071 135437 31307 122472 14949 32460 6499 81281 57540 55588 4059 79331 72098 12572 34232 22235 99089
is_linear=0
shrinkage=0.05


Tree=6
num_leaves=31
num_cat=0
split_feature=4 4 3 3 3 4 0 4 3 4 1 0 1 0 0 0 3 4 3 0 2 3 3 2 1 3 0 2 4 3
split_gain=6364.99 1908.55 375.277 325.296 290.329 264.568 194.689 170.991 130.878 89.4978 95.5386 87.8339 85.8539 87.1244 80.2531 82.362 68.3643 82.0788 67.3577 62.9866 60.3743 57.2911 52.4883 47.0881 42.7455 60.7175 41.1957 46.0363 39.3056 38.9551
threshold=0.033995602913275712 0.16158771139337039 0.027933254388470278 -0.11678705972479987 0.13066316447175566 0.10335480842200033 10.461248292596453 2.6373341676923313e-07 -0.050567593864035497 0.055715479830556053 28.149255284171769 0.17332857082200806 84.567641153958235 30.870740991682833 30.870740991682833 57.712015338609895 0.053769332627672639 0.32674510126282247 0.074604496719089128 65.357600994662661 0.0087531534016035296 -0.050567593864035497 -0.055565637647862674 -0.047560802474437586 65.530331661814486 0.01050000740150118 65.963678810935306 0.2446563427317924 1.0131070765735728 -0.039583519262219126
decision_type=2 2 2 2 2 2 2 2 2 2 2 2 2 2 2 2 2 2 2 2 2 2 2 2 2 2 2 2 2 2
left_child=7 2 5 11 6 9 -5 20 -8 -2 -11 -3 13 -10 21 22 17 -15 19 -4 -1 -7 -16 -18 25 29 -6 -28 -13 -12
right_child=1 3 18 4 26 14 8 -9 12 10 24 28 -14 16 15 -17 23 -19 -20 -21 -22 -23 -24 -25 -26 -27 27 -29 -30 -31
leaf_value=-0.053439449456851695 -0.017381859242486284 -0.046760757741168613 0.0092402733694960538 -0.02997536941536565 0.00053457406078023177 -0.0040172998048946824 0.017111420185386441 -0.032856377477018923 -0.018645863737976519 -0.031593946769518072 0.001856538322610052 0.034914899733722721 -0.019768579156356422 0.005887750042698519 0.014116631712118917 -0.015036367599316989 -0.0088648252582043882 0.017044399401194496 0.021545718160419374 -0.0018363715038049505 -0.033628675101371568 -0.024706383104811398 0.00053759677569461986 0.013900209725014446 -0.029002247391840846 -0.00022057152848831377 0.029267277423492014 0.016035302023865963 0.00044548201711060983 -0.009637149640639369
leaf_weight=4561.5200685560703 3273.5413801074028 34.730286210775375 3920.6806337088346 303.70425947010517 167.08738267421722 843.11556020379066 5611.7479240000248 1572.2953101396561 283.04365174472332 422.30022509396076 798.00204440951347 1928.0760204046965 263.83599126338959 12944.197655379772 756.82619136571884 816.39204536378384 234.54691152274609 1889.154908016324 748.69191208481789 1908.0143374502659 419.99206382036209 554.80435411632061 11921.133661404252 7203.3866436481476 225.88580799102783 2596.8403373211622 2620.1680696308613 877.48324769735336 86.410523638129234 9675.5955630838871
leaf_count=29857 18775 203 20681 1770 834 4561 28729 9506 1614 2492 4392 9292 1499 68335 3946 4487 1208 9717 3808 10280 2603 3184 64285 37042 1313 14268 12898 4436 461 53844
internal_value=-3.3137e-05 0.00420955 -0.00344632 0.0127576 0.0115356 -0.00568952 0.00984523 -0.0472319 0.0102706 -0.00995341 -0.00818083 0.0320772 0.00858824 0.00891995 -0.000824403 0.000356966 0.00927028 0.00730865 0.00742779 0.00561435 -0.0517692 -0.0122284 0.00134821 0.0131823 -0.00743722 -0.00706452 0.024789 0.0259477 0.0334363 -0.00876143
internal_weight=79463.2 72909.4 38461.8 34447.6 32398.4 31884.4 28733.6 6553.81 28429.9 16992.2 13718.6 2049.22 22818.2 22554.3 14892.3 13494.4 22271.3 14833.4 6577.39 5828.69 4981.51 1397.92 12678 7437.93 13296.3 13070.4 3664.74 3497.65 2014.49 10473.6
internal_count=430320 388354 210316 178038 168082 175547 149914 41966 148144 95084 76309 9956 119415 117916 80463 72718 116302 78052 34769 30961 32460 7745 68231 38250 73817 72504 18168 17334 9753 58236
is_linear=0
shrinkage=0.05


Tree=7
num_leaves=31
num_cat=0
split_feature=4 4 3 3 3 0 4 4 0 1 0 4 3 2 3 2 3 3 0 0 0 0 1 4 3 0 0 2 3 3
split_gain=5909.21 1720.47 328.929 342.633 268.911 216.231 169.08 169.028 107.493 94.0166 91.7257 64.9475 64.4218 60.6689 58.049 58.3286 55.1711 54.7383 53.1046 63.6556 50.3992 51.3576 50.3761 47.6356 46.6406 52.6702 46.3686 43.0075 42.6149 41.8159
threshold=0.033995602913275712 0.14141725840038516 -0.08710721798299649 0.096565828690091449 0.021685306632585347 20.022804967521903 0.083925266518895536 2.6373341676923313e-07 83.589930984706754 1.1273136815498506 27.098755825681319 0.22664007796528282 -0.15199212660291719 0.0010009077915077347 0.17284391689367085 0.1472327806114189 0.047687584635273242 -0.048371468780457491 64.519226386849894 45.672706502370012 39.166858611232634 61.481235275863803 22.874295757950943 0.62643400538360383 -0.04946696691118025 34.91089365467559 30.403749590155694 -0.39018308280293085 -0.044198565714360004 -0.050567593864035497
decision_type=2 2 2 2 2 2 2 2 2 2 2 2 2 2 2 2 2 2 2 2 2 2 2 2 2 2 2 2 2 2
left_child=7 4 9 5 6 28 18 13 11 -3 29 16 23 -1 -5 -16 24 -12 19 -2 -19 -22 -14 -11 26 -26 -7 -13 -4 -8
right_child=1 2 3 14 -6 8 10 -9 -10 12 17 27 22 -15 15 -17 -18 20 -20 -21 21 -23 -24 -25 25 -27 -28 -29 -30 -31
leaf_value=-0.053432112581963447 -0.015934696736912623 -0.043531946500047804 -0.013964923025195126 0.016644129164665539 0.0044705899351647855 -0.0010012030458404326 -0.0074199565565511577 -0.031837453961861654 -0.01863330382073658 0.043189617270959199 0.0077999813172965173 -0.0038067057632485794 0.0015513226281715219 -0.038652404165025023 0.03363074250631453 0.0162053039092875 0.012275147466375444 -0.011036189458933345 -0.033967559044501897 -0.0079076593821420637 -0.0018393892015757527 -0.026267269693016022 0.02371861469321768 0.019762774431390653 -0.011560771644571897 0.0043714210165065551 0.014941384721861668 0.011610597406426056 -0.043209548399900564 -0.029732520116291877
leaf_weight=3980.6704664230347 4270.2572561502457 50.149920076131821 402.06937345862389 4266.469922721386 6450.4207161515951 598.68503421545029 384.61856450140476 1542.2591564059258 381.71174088120461 717.70679277181625 1148.5103720724583 471.47247399389744 284.35275274515152 841.04553566873074 1246.8514154106379 781.07147897779942 3087.41646027565 1935.3617525994778 264.95531037449837 5857.9134608954191 11180.779837846756 219.38762810826302 2597.3954233974218 311.02861700952053 542.4394823461771 11875.623409032822 1914.8195901960135 11147.994859859347 180.48742631077766 462.46477036178112
leaf_count=27040 24453 300 2291 21386 34296 3111 2174 9506 2159 3349 6108 2433 1457 5420 6012 3909 15972 10842 1577 33000 61017 1292 12744 1521 2984 62677 9825 57605 1138 2722
internal_value=-3.64409e-05 0.00399018 0.0108003 0.00933046 -0.00465781 0.00714529 -0.00694678 -0.0462456 0.00773077 0.0244933 -0.00360921 0.00807031 0.0253657 -0.0508541 0.0199545 0.0269192 0.00619077 -0.00267392 -0.0118701 -0.011292 -0.00357598 -0.00230949 0.0215313 0.0361067 0.0049327 0.00367548 0.0111441 0.010985 -0.0230255 -0.0196015
internal_weight=79396.4 73032.4 40857.7 36897.1 32174.7 30602.7 25724.2 6363.98 30020.2 3960.63 15331.1 29638.5 3910.48 4821.72 6294.39 2027.92 18019 14484 10393.1 10128.2 13335.5 11400.2 2881.75 1028.74 14931.6 12418.1 2513.5 11619.5 582.557 847.083
internal_count=430320 388354 210873 191502 177481 160195 143185 41966 156766 19371 84155 154607 19071 32460 31307 9921 94569 79259 59030 57453 73151 62309 14201 4870 78597 65661 12936 60038 3429 4896
is_linear=0
shrinkage=0.05


Tree=8
num_leaves=31
num_cat=0
split_feature=4 4 3 3 3 0 4 4 0 0 0 3 4 2 3 3 0 2 4 3 0 4 3 3 1 0 0 3 3 0
split_gain=5486.95 1545.54 292.168 309.015 243.696 195.099 167.159 154.542 102.013 87.666 85.3254 62.9562 62.0887 60.5903 58.38 56.9906 59.7438 51.1598 49.8111 45.4448 44.7055 41.2244 40.8154 39.7918 49.0155 38.7386 49.7395 47.4892 38.3527 65.2663
threshold=0.033995602913275712 0.14141725840038516 -0.083714372785724675 0.090866658794086716 0.021685306632585347 22.166913506749705 2.6373341676923313e-07 0.083925266518895536 76.595548629190716 7.1784829322600254 21.238041425057308 -0.11678705972479987 0.31798401778835866 0.0010009077915077347 0.16153885429115403 -0.056920710352224867 32.893030657653973 0.2446563427317924 0.048871217257474876 0.038567516333090829 61.481235275863803 1.0131070765735728 -0.044198565714360004 0.063956589020652863 66.816344415483613 42.719947510537729 57.216128660428502 0.016269288635835478 -0.048371468780457491 38.073728282067854
decision_type=2 2 2 2 2 2 2 2 2 2 2 2 2 2 2 2 2 2 2 2 2 2 2 2 2 2 2 2 2 2
left_child=6 4 9 5 7 22 13 18 12 -3 -9 21 15 -1 -5 -7 -17 -16 -2 -18 28 -11 -4 24 -6 -20 -27 -28 -12 -30
right_child=1 2 3 14 23 8 -8 10 -10 11 20 -13 -14 -15 17 16 19 -19 25 -21 -22 -23 -24 -25 -26 26 27 -29 29 -31
leaf_value=-0.052598794614095445 -0.018834632028279334 -0.013411776637046256 -0.012170487185434484 0.014937675434005107 0.0045045046775910496 0.013740640953852369 -0.030841783977751482 -0.02424739807860599 -0.012647001705988776 0.031748487820523148 0.0055664934456467899 0.017952042387709918 0.013391138665284416 -0.037636201796815927 0.029178278589723834 -0.0098577114278339349 0.0048352971790224537 0.012955776489372108 -0.015043192689560045 0.0099700246649618261 -0.02534039440166096 -0.0048273198101093026 -0.039281720373156637 0.01498549054054036 -0.00983845209504133 -0.0059697703043686372 -0.031976132351936755 -0.0054545203601661547 -0.012390068176166502 -0.001905149334569956
leaf_weight=3845.0007820129395 1830.1971478164196 163.14228393137455 456.31072492897511 4564.0480122864246 5029.1382675766945 2546.1641473472118 1513.1961019039154 477.16736114025116 636.0371471196413 1933.3108807355165 1359.118640512228 2124.4693300575018 3981.0839977264404 821.07964633405209 1714.5564960688353 589.94806286692619 15403.90220426023 678.2483171671629 2450.8316661566496 5982.7695413976908 216.12606978416443 80.235473096370697 199.52644230425358 759.91164277493954 675.68530561029911 5359.9573968052864 382.7655133754015 301.92163583636284 1703.173403263092 11545.360515579581
leaf_count=27040 10745 921 2581 22828 26694 12914 9506 2874 3495 9055 7233 10512 20233 5420 8205 3259 80845 3380 14151 30947 1292 422 1276 3909 3693 30211 2202 1721 9629 63127
internal_value=-3.92301e-05 0.00378293 0.0102088 0.00876587 -0.00443761 0.00655051 -0.0452827 -0.00662603 0.00715749 0.0225388 -0.00343635 0.0239562 0.00759941 -0.0499659 0.0182541 0.00665916 0.00583872 0.02458 -0.0113526 0.0062717 -0.00276645 0.030291 -0.0204186 0.00423741 0.00280571 -0.00974074 -0.00759084 -0.0202811 -0.00243246 -0.00325304
internal_weight=79324.4 73145.1 41053.8 36752.6 32091.4 29795.7 6179.28 25626.6 29139.9 4301.16 15300.9 4138.02 28503.9 4666.08 6956.85 24522.8 21976.6 2392.8 10325.7 21386.7 14823.8 2013.55 655.837 6464.74 5704.82 8495.48 6044.64 684.687 14607.7 13248.5
internal_count=430320 388354 210873 189963 177481 155550 41966 143185 151693 20910 84155 19989 148198 32460 34413 127965 115051 11585 59030 111792 81281 9477 3857 34296 30387 48285 34134 3923 79989 72756
is_linear=0
shrinkage=0.05


Tree=9
num_leaves=31
num_cat=0
split_feature=4 4 3 3 3 4 4 0 3 4 0 1 0 3 0 0 2 4 3 0 0 3 1 3 2 2 3 2 0 3
split_gain=5095.43 1390.08 288.129 228.83 205.439 200.982 165.344 153.866 94.6617 83.751 92.0607 71.5807 71.279 69.6464 67.8377 67.1712 60.9 60.0337 52.6526 51.8019 51.2761 46.6039 46.026 46.8486 40.9736 38.5741 38.2076 36.4122 35.1793 31.9519
threshold=0.033995602913275712 0.16158771139337039 0.028714707845258248 -0.11678705972479987 0.14408908034722676 0.11081113986563294 2.6373341676923313e-07 10.461248292596453 -0.050567593864035497 0.055715479830556053 22.166913506749705 87.847539225560013 30.870740991682833 0.070806355607239094 57.712015338609895 0.17332857082200806 0.0087531534016035296 0.32674510126282247 0.074604496719089128 65.357600994662661 30.870740991682833 -0.058369819577152801 65.530331661814486 0.0095404042405953671 0.1472327806114189 -0.094594513080997034 -0.06303835705845813 -0.2990003526395037 30.870740991682833 -0.03786777373114205
decision_type=2 2 2 2 2 2 2 2 2 2 2 2 2 2 2 2 2 2 2 2 2 2 2 2 2 2 2 2 2 2
left_child=6 2 5 15 7 9 16 -5 28 -2 29 13 21 17 26 -3 -1 20 19 -4 -10 -7 23 25 -6 -12 -14 -22 -9 -11
right_child=1 3 18 4 24 12 -8 8 11 10 22 -13 14 -15 -16 -17 -18 -19 -20 -21 27 -23 -24 -25 -26 -27 -28 -29 -30 -31
leaf_value=-0.050893284421486489 -0.015577192737800026 -0.044353794267871283 0.008375870086259448 -0.027658073525980504 0.026215865735799506 -0.0019077309954100372 -0.029868449867437464 0.0087897996518241216 -0.016761689114495434 -0.012455595346110437 0.0019393639730816412 -0.020624065532406182 0.017027922156475552 0.012416129158572835 -0.013638029173414033 0.027828821818196722 -0.030284997620399597 0.013432706192968142 0.018987508978684099 -0.001781752369288751 -0.0073195919531139275 -0.021498006982358871 -0.027305152747019584 -0.00045558837653360794 0.014179416685131825 -0.0080706123354579613 0.001510418071468643 0.0058451291713497618 0.017252982182078391 -0.039029556618395217
leaf_weight=4122.1303694099188 3204.5778766572475 32.735493347048759 3775.3729787021875 291.57337513566017 2017.7958959937096 611.9696254581213 1485.1072210073471 1783.8911352157593 266.53663782775402 187.8260286450386 1057.2608138620853 224.86998784542084 412.36293478310108 5912.1725526303053 730.81633968651295 2086.4167102426291 392.63275581598282 2434.8996264636517 763.48585946857929 1880.2938473075628 545.17414148151875 602.4478667974472 250.44114825129509 3328.8015502542257 1088.4407975673676 10730.067576125264 10433.625118717551 14369.497886180878 3939.6166320890188 284.38120487332344
leaf_count=29857 18826 203 19722 1770 9550 3294 9506 9010 1566 1134 5907 1287 2103 29677 4037 9753 2603 12299 3808 10103 2855 3522 1505 18317 5369 60197 56098 74980 19719 1743
internal_value=-4.15945e-05 0.00358704 -0.00300092 0.0107888 0.00976219 -0.00494948 -0.0443405 0.00848539 0.00884291 -0.00820548 -0.00671399 0.00745204 -0.000102021 0.00772037 0.00110686 0.0267138 -0.0491011 0.00614442 0.00666264 0.00499885 0.00497546 -0.0116261 -0.00604577 -0.00569354 0.0219982 -0.00717277 0.00210039 0.00536392 0.0146152 -0.0284594
internal_weight=79247.2 73247.4 38253.7 34993.6 32874.5 31834.6 5999.87 29768.2 29476.7 19043.4 15838.8 23753.2 12791.2 23528.3 11576.8 2119.15 4514.76 17616.1 6419.15 5655.67 15181.2 1214.42 15366.6 15116.1 3106.24 11787.3 10846 14914.7 5723.51 472.207
internal_count=430320 388354 210316 178038 168082 176683 41966 153163 151393 107629 88803 122664 69054 121377 62238 9956 32460 91700 33633 29825 79401 6816 85926 84421 14919 66104 58201 77835 28729 2877
is_linear=0
shrinkage=0.05


Tree=10
num_leaves=31
num_cat=0
split_feature=4 4 3 3 3 0 4 4 0 0 1 2 0 0 3 4 3 1 2 4 3 0 0 1 2 3 0 3 0 0
split_gain=4732.1 1251.8 236.015 248.313 203.68 168.707 163.54 137.781 85.7109 76.4605 72.4453 61.3737 56.3651 61.5623 52.2762 47.4912 47.8623 47.306 40.8999 39.1607 38.4625 63.1626 37.4704 39.6214 35.9156 35.8823 37.2768 35.4542 35.2218 33.4973
threshold=0.033995602913275712 0.14141725840038516 -0.083714372785724675 0.10315819129964483 0.019865985883344598 20.022804967521903 2.6373341676923313e-07 0.083925266518895536 83.589930984706754 13.297224523132494 1.1273136815498506 0.0010009077915077347 58.267834184596872 45.672706502370012 -0.15199212660291719 0.22664007796528282 0.047687584635273242 22.874295757950943 -8.0856104669072322e-06 0.62643400538360383 0.043399926828136433 60.390852843993848 75.882165628733873 99.999999999999901 -0.39018308280293085 -0.039583519262219126 23.319036234356584 -0.044198565714360004 59.373009904102837 30.403749590155694
decision_type=2 2 2 2 2 2 2 2 2 2 2 2 2 2 2 2 2 2 2 2 2 2 2 2 2 2 2 2 2 2
left_child=6 4 10 5 7 27 11 12 15 -9 -3 18 13 25 19 16 29 -16 -1 -12 21 -6 -5 -24 -17 -2 -27 -4 -11 -7
right_child=1 2 3 22 20 8 -8 9 -10 28 14 -13 -14 -15 17 24 -18 -19 -20 -21 -22 -23 23 -25 -26 26 -28 -29 -30 -31
leaf_value=-0.043293472380990697 0.00077592721572432972 -0.040090634984824305 -0.013005224942150121 0.013443676584757812 0.0059532250264639538 -0.0061261294940806212 -0.028916700252940665 -0.029981597413882649 -0.016343164614682059 -0.0023033754460741246 0.036733096497443309 -0.035553461739820109 -0.025529712034195625 -0.006129573608218951 -0.0010362060715779216 -0.0043418646114377164 0.010693840003342284 0.019613913124426365 -0.054710183296377793 0.015806632800987121 0.0087781311773298537 -0.0057083083688176444 0.021861641891784498 -0.070015899893617159 0.0098498269303572018 -0.034293961219363192 -0.014386432887220897 -0.040677011139262087 -0.020832367325080856 0.0046020308892054324
leaf_weight=1158.8873119354248 361.78522117435932 49.381349995732307 367.31415103375912 3000.2532763332129 2678.7024476081133 767.01990185678005 1457.9886718094349 260.12321792542934 403.08566233515739 14382.410656288266 743.63276687264442 780.86815646290779 601.96417099237442 5223.8248248845339 306.09887853264809 463.67082285881042 3313.2418369650841 2951.8252596259117 2428.1448440551758 319.66477693617344 2302.7975609600544 2049.6005741655827 2800.7280233204365 11.783495381474493 11576.659478351474 251.76743143796921 3562.5335666239262 169.01592567563057 261.13374181091785 14161.51235294342
leaf_count=8736 2094 311 2136 14638 14209 4114 9506 1616 2310 79100 3349 5420 3573 29837 1562 2381 16881 14167 18304 1521 11998 11143 13454 58 58935 1546 20813 1138 1552 73918
internal_value=-4.36083e-05 0.00340171 0.00913868 0.00784185 -0.00403608 0.00607527 -0.0434164 -0.00615768 0.00656119 -0.00311112 0.0201274 -0.0482564 -0.0106973 -0.00974747 0.0208155 0.00686607 0.00525739 0.0176737 -0.0510217 0.0304419 0.00347903 0.000898243 0.0173305 0.0214767 0.00930331 -0.0142731 -0.0157005 -0.0217255 -0.0026338 0.00405082
internal_weight=79167.4 73341.5 41404.9 37034.3 31936.6 31221.5 5825.89 24905.5 30685.2 14903.7 4370.6 4367.9 10001.9 9399.91 4321.22 30282.1 18241.8 3257.92 3587.03 1063.3 7031.1 4728.3 5812.76 2812.51 12040.3 4176.09 3814.3 536.33 14643.5 14928.5
internal_count=430320 388354 210873 189963 177481 161813 41966 140131 158539 82268 20910 32460 57863 54290 20599 156229 94913 15729 27040 4870 37350 25352 28150 13512 61316 24453 22359 3274 80652 78032
is_linear=0
shrinkage=0.05


Tree=11
num_leaves=31
num_cat=0
split_feature=4 4 4 3 4 3 3 3 0 0 0 0 4 3 1 1 2 3 0 0 3 0 2 3 1 2 3 2 0 2
split_gain=4394.84 1130.18 263.135 187.088 161.734 135.878 119.793 109.765 98.4822 88.4642 87.5861 85.0557 78.7819 71.5787 71.2382 66.1906 61.3625 58.6892 64.4831 53.2993 43.942 72.9201 41.0401 38.8203 55.0657 37.5342 36.7964 35.022 31.4582 29.1311
threshold=0.033995602913275712 0.12779643494499021 0.22664007796528282 0.014606491304090814 2.6373341676923313e-07 -0.10420340812717981 0.069005244707757665 0.14408908034722676 58.267834184596872 21.238041425057308 70.541267940012816 13.297224523132494 0.065958378061490949 -0.044198565714360004 87.847539225560013 19.828812735801225 0.0010009077915077347 -0.06668692610119846 30.403749590155694 0.17332857082200806 -0.043256623760802464 37.59891541407908 -8.0856104669072322e-06 0.038567516333090829 66.453755108596013 -0.39018308280293085 -0.059859775932419507 0.1472327806114189 43.38259848219294 -0.094594513080997034
decision_type=2 2 2 2 2 2 2 2 2 2 2 2 2 2 2 2 2 2 2 2 2 2 2 2 2 2 2 2 2 2
left_child=4 3 6 8 16 19 9 14 11 13 17 -2 -13 -3 15 -7 22 -11 -19 -4 -14 -22 -1 24 -5 -17 28 -9 -27 -23
right_child=1 2 5 23 -6 7 -8 27 -10 10 -12 12 20 -15 -16 25 -18 18 -20 -21 21 29 -24 -25 -26 26 -28 -29 -30 -31
leaf_value=-0.042410348980311804 -0.030234330690657441 -0.0040524892110869303 -0.042185652637060665 0.0012923746390000135 -0.02798590434561023 -0.027272008550429511 0.014922826903088653 0.023387549086353945 -0.030372166968169547 0.013203934140104491 -0.014277797955886179 -0.012035009613715879 0.0035909092297691098 -0.038768456755833278 -0.027224344471549713 -0.0034335987538779179 -0.034593310593380423 -0.012554395520562301 0.0042496558045221492 0.024090657095220173 -0.01540127029174071 0.0037298984823416212 -0.054033895028689875 0.0077251195258259287 -0.017928790542023731 0.014753351208565139 0.0090307985039231771 0.012126072650038273 0.04315550185781105 -0.0048617776518677961
leaf_weight=1124.7416138648987 378.08006539940834 548.5854072868824 30.722880646586418 4505.2257931679487 1431.8326177597046 122.71735891699791 2510.5792941302061 1952.1589908897877 451.13473911583424 1789.3080809265375 637.02002903819084 4564.3987864851952 1499.5543776005507 203.57967981696129 134.6617316454649 533.2617551535368 762.87720814347267 588.69106172025204 18887.326541498303 2403.2003501057625 1613.9251316189766 1087.1842797100544 2337.8997688293457 2176.0252385735512 406.21346063911915 2055.5738161504269 12515.636832073331 1068.1264469772577 102.34654676914215 10663.720642149448
leaf_count=8736 2381 3036 200 24450 9506 727 12497 9078 2718 8826 3494 26780 8222 1373 769 2724 5420 3273 99049 11129 9375 6017 18304 11375 2374 10120 63252 5196 505 59414
internal_value=-4.52488e-05 0.00322638 0.00800475 -0.00482629 -0.042509 0.0121488 0.00456005 0.0106865 -0.00727253 0.00341164 0.00399065 -0.00674639 -0.00628932 -0.0134487 0.0089837 0.00930177 -0.0474301 0.0045379 0.00374173 0.0232541 -0.004525 -0.00543561 -0.0502583 0.00216574 -0.000297362 0.00959692 0.0100705 0.0194049 0.0161004 -0.00406688
internal_weight=79086.3 73429 46083.5 27345.5 5657.35 20918.4 25165.1 18484.5 20258 22654.5 21902.3 19806.9 19428.8 752.165 15464.2 15329.5 4225.52 21265.3 19476 2433.92 14864.4 13364.8 3462.64 7087.46 4911.44 15206.8 14673.6 3020.29 2157.92 11750.9
internal_count=430320 388354 235248 153106 41966 103700 131548 92371 114907 119051 114642 112189 109808 4409 78097 77328 32460 111148 102322 11329 83028 74806 27040 38199 26824 76601 73877 14274 10625 65431
is_linear=0
shrinkage=0.05


Tree=12
num_leaves=31
num_cat=0
split_feature=4 4 3 3 4 4 3 0 3 3 4 1 0 0 1 3 0 0 3 0 0 2 3 3 0 0 3 3 4 0
split_gain=4081.52 1018.78 221.234 165.93 159.895 159.747 148.407 119.262 79.3064 62.0542 57.9788 68.4751 55.0856 56.2046 54.8846 51.7013 50.8932 50.6571 46.8754 49.46 44.5827 43.901 37.9324 37.0685 32.2364 31.8793 36.2814 31.1336 48.9433 40.4554
threshold=0.033995602913275712 0.16158771139337039 0.02437874548758957 -0.11678705972479987 2.6373341676923313e-07 0.10335480842200033 0.13066316447175566 10.461248292596453 -0.050567593864035497 -2.0268581378484376e-05 0.055715479830556053 28.149255284171769 62.598427080514575 30.870740991682833 84.567641153958235 2.2509657256789711e-07 30.870740991682833 0.17332857082200806 0.074604496719089128 65.357600994662661 49.54882804446693 -0.33958827407783593 -0.058369819577152801 -0.04946696691118025 65.963678810935306 41.680581076757498 -0.021148452929671786 0.070806355607239094 0.38480890575957644 53.809730322368296
decision_type=2 2 2 2 2 2 2 2 2 2 2 2 2 2 2 2 2 2 2 2 2 2 2 2 2 2 2 2 2 2
left_child=4 2 5 17 9 10 7 -5 -9 -1 -2 -12 13 22 16 -11 -10 -3 19 -4 -17 -18 -7 -15 -8 -25 -27 28 -23 -30
right_child=1 3 18 6 -6 12 24 8 14 15 11 -13 -14 23 -16 20 21 -19 -20 -21 -22 27 -24 25 -26 26 -28 -29 29 -31
leaf_value=-0.036162702294301192 -0.014139389469895734 -0.041530996125158308 0.0063793679763561664 -0.025398379653686423 -0.027075547070048334 -0.0015199250812474364 -0.0035757763275750111 0.012615263830647455 -0.015257645529478262 -0.055092221909549016 -0.027148229921638387 -0.0058625096222247684 -0.030059664570929307 0.0090877298912919891 -0.017047228212235241 0.12274904444655393 -0.0062854321404906379 0.023459757082446259 0.01659056464574905 -0.0028804594261385048 -0.042084051690059396 0.0051735635104429439 -0.018239985160185549 -0.0052273298495110069 0.018502424681614213 0.0079151164396612187 -0.00030886286894031529 0.010318486133077689 0.025775012715253121 0.0073687515567236661
leaf_weight=1053.1855630725622 3073.3095790594816 30.408817142248154 4878.4847160428762 279.99900579452515 1406.6279284060001 665.17875115573406 173.10554984211922 5812.6954875439405 269.53012174367905 1956.8611034676433 389.52475662529469 12583.971735432744 157.99663113057613 1182.4173305332661 253.57897825539112 4.1179445534944525 642.66231660544872 2141.8684494048357 777.42033664882183 2047.2388270646334 1073.480750001967 15657.993847101927 692.21948544681072 2483.9811014980078 3682.1299100667238 1632.8694974780083 7505.3295641988516 5287.8626905083656 541.25779129564762 665.68193081021309
leaf_count=7929 18486 203 25383 1770 9506 3596 834 28729 1614 15907 2492 71507 971 6078 1499 31 3341 9753 3808 11027 8593 80799 4149 13618 17334 8761 40440 26200 2667 3295
internal_value=-4.66675e-05 0.00306036 -0.00261887 0.00916124 -0.0416161 -0.00453859 0.00828697 0.00707787 0.00739002 -0.0466197 -0.00796441 -0.00650161 -0.000699671 -0.00037212 0.00608751 -0.0502491 0.00634185 0.02255 0.00494895 0.00364217 -0.0414542 0.00659724 -0.0100465 0.000653448 0.0175111 -0.000204639 0.00116065 0.00697097 0.00592139 0.0156231
internal_weight=79003 73508.7 38069.9 35438.8 5494.27 30366.8 33266.5 29411.3 29131.3 4087.65 16046.8 12973.5 14320 14162 23318.6 3034.46 23065 2172.28 7703.14 6925.72 1077.6 22795.5 1357.4 12804.6 3855.24 11622.2 9138.2 22152.8 16864.9 1206.94
internal_count=430320 388354 210316 178038 41966 170098 168082 149914 148144 32460 92485 73999 77613 76642 119415 24531 117916 9956 40218 36410 8624 116302 7745 68897 18168 62819 49201 112961 86761 5962
is_linear=0
shrinkage=0.05


Tree=13
num_leaves=31
num_cat=0
split_feature=4 4 4 3 4 3 3 3 4 0 0 0 1 0 2 3 0 3 0 4 0 3 3 0 2 2 3 0 3 0
split_gain=3790.37 920.048 211.372 162.01 157.997 109.139 98.8808 87.4318 83.0052 77.8234 73.4698 72.2552 64.2451 63.5513 62.4135 46.1525 54.7846 44.0433 113.663 43.0299 42.8833 40.0809 37.3474 68.9488 36.3686 35.6107 33.2688 40.3116 37.1296 29.4793
threshold=0.033995602913275712 0.12779643494499021 0.22664007796528282 0.011512858657931233 2.6373341676923313e-07 -0.11678705972479987 0.069005244707757665 0.17284391689367085 0.063865361742808741 1.1997345107281066 70.541267940012816 13.297224523132494 19.828812735801225 96.530916967286956 0.0087531534016035296 -0.043256623760802464 37.59891541407908 -0.06668692610119846 30.403749590155694 1.0131070765735728 58.267834184596872 -0.059859775932419507 0.038567516333090829 62.820034168722991 0.2446563427317924 -0.39018308280293085 1.543852531286487e-05 49.54882804446693 -2.0268581378484376e-05 59.001405746355964
decision_type=2 2 2 2 2 2 2 2 2 2 2 2 2 2 2 2 2 2 2 2 2 2 2 2 2 2 2 2 2 2
left_child=4 3 6 8 14 19 9 12 29 -3 17 -10 -7 21 26 -13 -17 -11 -19 -4 -18 -14 23 -5 -9 -23 28 -28 -1 -2
right_child=1 2 5 22 -6 7 -8 24 11 10 -12 15 13 -15 -16 16 20 18 -20 -21 -22 25 -24 -25 -26 -27 27 -29 -30 -31
leaf_value=-0.040268407984224215 -0.012475100936270479 -0.036622499719844839 0.023763418760616065 0.0020970501039064369 -0.026185215590501805 -0.02387004331745753 0.013457327128225402 0.023604936196287066 -0.03036064988642382 0.010591509053490399 -0.013549506327795746 0.0035842953381022263 0.014505807545471802 -0.033589445356159965 -0.02595252322850999 -0.014203990606459284 -0.0041287393896095167 -0.014507290539231867 0.0038367743328777109 -0.0098695302945898886 -0.03502979673298548 -0.0072022272287647383 0.0071059386863446296 -0.011581670983226128 0.0091502167333975936 0.0083756460929806948 0.11318194183863864 -0.04000117017186694 -0.053821461413725138 -0.038374753922041864
leaf_weight=668.99416270107031 4021.4144688099623 122.92406882345676 1877.4465399086475 4780.7445103675127 1382.3603761792183 151.57848578691483 2539.071292206645 1480.4951376467943 279.53484438359737 2126.3500615954399 631.17931616306305 1508.7451096326113 2803.5940514355898 87.846954748034477 359.29581375420094 1638.217921346426 11418.628567025065 883.8015720397234 18959.245297059417 100.17423883080482 113.38952861726284 377.01758326590061 2187.8554651588202 1141.1436391472816 616.3072297424078 13621.207975283265 4.3165137618780127 855.96889805048704 2065.8014577999711 112.953289270401
leaf_count=5333 24025 806 8455 26028 9506 900 12497 6775 1826 10504 3494 8274 13579 502 2603 9647 63950 5198 99049 526 688 1957 11375 6578 2973 68033 30 7056 17438 715
internal_value=-4.77482e-05 0.00290332 0.00718526 -0.00439704 -0.0407359 0.0108774 0.00409923 0.00972183 -0.00691184 0.00305358 0.00326938 -0.00517865 0.00853638 0.00882721 -0.0458225 -0.0046991 -0.00564802 0.00375259 0.00301974 0.0220598 -0.00443258 0.00904899 0.00152358 -0.00053883 0.0193563 0.00795608 -0.0478084 -0.0392326 -0.0505061 -0.0131827
internal_weight=78917.6 73580.9 46378.2 27202.6 5336.74 21115.7 25262.6 19138 19092.9 22723.5 22600.6 14958.5 17041.2 16889.7 3954.38 14679 13170.2 21969.4 19843 1977.62 11532 16801.8 8109.74 5921.89 2096.8 13998.2 3595.08 860.285 2734.8 4134.37
internal_count=430320 388354 235248 153106 41966 103700 131548 94719 109125 119051 118245 84385 84971 84071 32460 82559 74285 114751 104247 8981 64638 83569 43981 32606 9748 69990 29857 7086 22771 24740
is_linear=0
shrinkage=0.05


Tree=14
num_leaves=31
num_cat=0
split_feature=4 4 3 4 3 3 4 0 3 0 4 0 3 1 0 0 3 1 2 3 0 3 3 0 3 2 0 1 3 4
split_gain=3519.76 828.912 187.223 156.053 133.711 129.682 127.327 102.452 62.1937 59.8223 63.8786 54.4466 52.6914 50.3859 50.2062 56.9711 37.4159 36.9494 35.9857 35.9448 34.8299 34.4674 33.6793 37.227 33.0297 32.6095 31.7711 29.7245 29.6353 33.3115
threshold=0.033995602913275712 0.16158771139337039 0.028714707845258248 2.6373341676923313e-07 -0.090890403572059478 0.13066316447175566 0.11081113986563294 16.959816217993239 -2.0268581378484376e-05 22.166913506749705 0.055715479830556053 0.17332857082200806 2.2509657256789711e-07 84.567641153958235 30.870740991682833 57.712015338609895 -0.050567593864035497 65.530331661814486 -0.21942083997889658 -0.037067067083702415 49.54882804446693 0.0095404042405953671 0.078765556529284006 65.357600994662661 -0.058369819577152801 -0.094594513080997034 32.893030657653973 45.785827180383784 -0.15199212660291719 0.62643400538360383
decision_type=2 2 2 2 2 2 2 2 2 2 2 2 2 2 2 2 2 2 2 2 2 2 2 2 2 2 2 2 2 2
left_child=3 2 6 8 11 7 9 -6 -1 19 -11 -3 -10 16 24 -16 27 21 -18 -2 -14 25 23 -4 -8 -12 -20 -9 29 -13
right_child=1 4 22 -5 5 -7 14 13 12 10 17 28 20 -15 15 -17 18 -19 26 -21 -22 -23 -24 -25 -26 -27 -28 -29 -30 -31
leaf_value=-0.034338955702999559 -0.0064817737476002254 -0.041662023008781753 0.0070342541636511371 -0.025314560348016997 -0.020949609627611686 0.015717173808807917 -0.0018373684329407336 0.0092942260813097463 -0.053955530655080033 -0.012821703063172318 0.0026277247843649399 0.030408761485320009 0.094811604315450979 -0.016023090501952646 0.0017638882035764182 -0.012739944578745888 -0.0034957839806879902 -0.024349435909080248 -0.0097136633446779658 -0.032654434858391194 -0.040358557083963319 6.0047270648193597e-06 0.016347022435057909 -0.001362728073267994 -0.018527850824471431 -0.0066140930435631632 0.0063831505973649463 0.022169786470140018 0.014879426347405439 0.011440330694358489
leaf_weight=1002.2524091154337 211.09172905981541 38.934371188282967 3859.5404530614614 1359.0134668052197 348.58743754029274 3901.5634426176548 610.87362049520016 3776.1938271969557 1808.1420270502567 2972.4371130764484 1049.4718820005655 765.24151200056076 4.7883356362581244 249.89212748408318 10879.393744602799 721.9951101988554 1009.4992094784975 238.02030366659164 310.9083671271801 346.54666920006275 1010.2991124168038 3311.7154769301414 627.8458246588707 2005.955314129591 575.8401305526495 10545.955384209752 21836.683197528124 508.62835323810577 2613.1760499179363 331.82072402536869
leaf_count=7929 1333 265 19892 9506 2231 18168 3294 18648 15907 18087 5907 3334 31 1499 58201 4037 5239 1505 1795 2283 8593 18317 3034 10707 3522 60197 110616 2503 12202 1538
internal_value=-4.86282e-05 0.00275453 -0.00238922 -0.0398686 0.00822479 0.00717631 -0.00398451 0.00598793 -0.045039 -0.00661658 -0.00612011 0.0171576 -0.0488375 0.00632702 -0.000140726 0.000861264 0.00653055 -0.00480483 0.00573638 -0.0227469 -0.0397209 -0.00449277 0.00534067 0.00416255 -0.00993625 -0.00577764 0.00615718 0.0108226 0.0177748 0.0246715
internal_weight=78832.3 73647.8 37956.7 5184.5 35691.1 31942 31463.3 28040.4 3825.48 18675.2 18117.6 3749.17 2823.23 27691.8 12788.1 11601.4 27441.9 15145.2 23157.1 557.638 1015.09 14907.1 6493.34 5865.5 1186.71 11595.4 22147.6 4284.82 3710.24 1097.06
internal_count=430320 388354 210316 41966 178038 160699 176683 142531 32460 107629 104013 17339 24531 140300 69054 62238 138801 85926 117650 3616 8624 84421 33633 30599 6816 66104 112411 21151 17074 4872
is_linear=0
shrinkage=0.05


Tree=15
num_leaves=31
num_cat=0
split_feature=4 4 4 3 2 4 3 3 2 3 0 0 0 0 1 3 0 0 0 3 0 4 0 3 0 2 2 2 0 1
split_gain=3273.88 789.771 172.584 147.284 97.0693 92.4511 88.0667 84.6664 80.9443 76.8035 70.6488 68.3025 69.4024 52.8158 49.9088 47.9007 59.6445 47.2916 44.7917 39.0008 93.3253 34.554 32.0968 31.2958 62.4404 29.5708 29.1874 27.893 27.4457 25.8797
threshold=0.026806145328573613 0.12779643494499021 0.22664007796528282 0.011512858657931233 0.0010009077915077347 0.057040278506718632 -0.090890403572059478 0.060799449985668587 -0.00013784826539829905 0.18641388230816688 13.297224523132494 70.541267940012816 1.1997345107281066 96.530916967286956 22.874295757950943 -0.040457639684526307 36.648217450325383 58.267834184596872 0.17332857082200806 -0.06668692610119846 30.403749590155694 0.67434489275062492 10.461248292596453 0.038567516333090829 65.357600994662661 -0.45823941705147747 -0.099877018735269718 0.035283386255498143 38.944155668658347 35.224652605778573
decision_type=2 2 2 2 2 2 2 2 2 2 2 2 2 2 2 2 2 2 2 2 2 2 2 2 2 2 2 2 2 2
left_child=4 3 7 5 8 -2 18 11 -1 13 -7 12 -3 14 -8 28 -17 26 -4 -14 -21 27 -6 24 -5 -16 -18 -11 -12 -28
right_child=1 2 6 23 22 10 9 -9 -10 21 15 -13 19 -15 25 16 17 -19 -20 20 -22 -23 -24 -25 -26 -27 29 -29 -30 -31
leaf_value=-0.034018422451650612 -0.01439898391158588 -0.035145831661077181 -0.040631826620036657 0.0015068396041865908 -0.038994042562325117 -0.029351750586070698 -0.023948031667652959 0.01114409558110877 -0.0500427461708009 0.034784522435373749 0.00036620335134359327 -0.016032331642888843 0.0095771414931320725 -0.030512961070823897 -0.0051740655469154767 -0.015787358236060388 0.0035232484061503582 -0.033909143320268613 0.018149867042345034 -0.013519110319991343 0.0032228565024360225 0.0088567964396101938 -0.020476944613702669 0.0064988446861307409 -0.013654538733931011 0.0081771509348596526 0.041550495058867425 0.018105583299268039 0.017310946503930304 -0.0051209707815975079
leaf_weight=1167.7825996652246 3180.5511096119881 118.79319868981838 32.751910090446472 5186.6161412596703 369.62264051288366 294.18400044739246 124.54177488386631 3293.4509160071611 2423.6937013044953 369.47948597371578 1551.7026924341917 483.68437987565994 2142.7828962504864 91.491608858108521 425.94218043982983 1307.1032511740923 1100.6746335327625 135.89721125364304 3087.2520790696144 871.73221553862095 18443.569322556257 624.47519814968109 637.89984081685543 2199.5813985466957 781.40156665444374 15749.348907500505 29.779955700039864 779.52543139457703 282.47324652969837 11458.814979404211
leaf_count=9628 19913 806 229 28307 2863 1980 754 16224 21595 1649 8617 2736 10504 528 2190 7847 6124 850 14048 5198 96080 2882 4774 11376 4670 77802 173 3618 1529 64826
internal_value=-4.92083e-05 0.00248983 0.00645292 -0.00422926 -0.0409849 -0.00660674 0.00977251 0.00366611 -0.0448324 0.00843959 -0.00507316 0.00254971 0.00296626 0.00737016 0.0075828 -0.00462301 -0.00561625 -0.0045715 0.0175328 0.00317725 0.00246726 0.0183237 -0.0272702 0.00140071 -0.000478263 0.00782557 -0.00425481 0.0234689 0.00297579 -0.00499999
internal_weight=78746.6 74147.6 46638.8 27508.8 4599 19341.2 21284.8 25354 3591.48 18164.8 16160.6 22060.6 21576.9 16391.3 16299.8 15866.4 14032.3 12725.2 3120 21458.1 19315.3 1773.48 1007.52 8167.6 5968.02 16175.3 12589.3 1149 1834.18 11488.6
internal_count=430320 391460 235248 156212 38860 111859 103700 131548 31223 89423 91946 115324 112588 81274 80746 89966 79820 71973 14277 111782 101278 8149 7637 44353 32977 79992 71123 5267 10146 64999
is_linear=0
shrinkage=0.05


Tree=16
num_leaves=31
num_cat=0
split_feature=4 4 4 3 4 2 3 3 2 0 3 0 0 0 0 0 3 0 4 3 0 2 3 3 0 2 0 2 0 4
split_gain=3047.51 732.386 154.553 140.123 101.489 84.956 80.3325 76.4421 67.6797 65.1324 64.3756 62.9766 59.6019 53.1263 52.7275 50.9632 45.1161 66.5668 35.7578 33.0469 86.7107 30.8759 29.9555 28.0318 58.461 27.4217 27.101 25.6516 24.9372 24.4068
threshold=0.021545727445611455 0.12779643494499021 0.22664007796528282 0.011512858657931233 0.048871217257474876 0.00090755247468638108 -0.11678705972479987 0.069005244707757665 -0.00013784826539829905 13.297224523132494 0.17284391689367085 1.1997345107281066 70.541267940012816 58.267834184596872 13.297224523132494 99.20407837042687 -0.040457639684526307 37.59891541407908 1.0131070765735728 -0.06668692610119846 30.403749590155694 0.2446563427317924 -0.059859775932419507 0.038567516333090829 61.481235275863803 -0.39018308280293085 42.379147663663254 0.0041630930396393349 10.461248292596453 0.67434489275062492
decision_type=2 2 2 2 2 2 2 2 2 2 2 2 2 2 2 2 2 2 2 2 2 2 2 2 2 2 2 2 2 2
left_child=5 3 7 4 27 8 18 11 -1 -6 14 -3 19 16 -8 22 -11 -18 -4 -13 -21 29 26 24 -5 -24 -16 -2 -7 -12
right_child=1 2 6 23 9 28 10 -9 -10 13 21 12 -14 -15 15 -17 17 -19 -20 20 -22 -23 25 -25 -26 -27 -28 -29 -30 -31
leaf_value=-0.034469082170780853 -0.020240689205958635 -0.034167458585958967 0.02027954223992404 0.0023973785786624061 -0.027844754528400031 -0.037885670441604971 -0.024897435101629464 0.011644295850978044 -0.049828743108982929 0.0028582782979655478 0.024310605418683781 0.0090607483866970966 -0.012510031918311912 -0.032529262578345423 0.01091563984851901 -0.044230901368858128 -0.014642879055129994 -0.0042166021178709724 -0.010326478647422668 -0.012944594225485391 0.0032405354015235381 0.0071101239967966273 -0.0066595512511840212 0.0061544545949881761 -0.0090493536387417275 0.0070455630089251448 0.029507721919254111 -0.0078362125971602088 -0.020981183005327038 0.010193940533431884
leaf_weight=1045.9901757389307 1523.5405095517635 116.15302956104279 1912.9142897129059 4501.6562122106552 311.94100168347359 363.87861483544111 126.66907234489918 2574.3646836280823 2281.563555650413 1850.3803025484085 1082.6310407072306 2151.4312940984964 622.86323074996471 170.87596371769905 2651.926644295454 47.512223616242409 1729.7353960573673 13315.689651176333 100.4437739700079 865.07475931942463 19063.662677660584 625.93678319454193 374.89147731661797 2206.3532238304615 1482.8603075742722 13804.072963565588 211.64868812263012 573.7134432643652 544.80042492598295 426.92937429249287
leaf_count=8950 9953 806 8455 24487 2133 2906 785 12497 21178 10228 4851 10504 3494 1096 12659 285 10467 75745 526 5198 99049 2973 1957 11376 8624 68275 1010 3743 4186 1924
internal_value=-4.96533e-05 0.00229829 0.00611355 -0.00414981 -0.00645742 -0.0413004 0.00924741 0.00347679 -0.0450006 -0.00520356 0.0082585 0.00255536 0.00274324 -0.00478973 0.00724286 0.00748108 -0.00450919 -0.00541529 0.0187526 0.00317353 0.00253796 0.0164468 0.00762525 0.00133712 -0.000438925 0.0066832 0.0122898 -0.0168474 -0.0277505 0.0203182
internal_weight=78662.1 74425.9 46759.1 27666.7 19475.9 4236.23 21365.6 25393.5 3327.55 17378.6 19352.2 22819.2 22703 17066.7 17216.7 17090.1 16895.8 15045.4 2013.36 22080.2 19928.7 2135.5 17042.5 8190.87 5984.52 14179 2863.58 2097.25 908.679 1509.56
internal_count=430320 393100 235248 157852 113365 37220 103700 131548 30128 99669 94719 119051 118245 97536 84971 84186 96440 86212 8981 114751 104247 9748 83901 44487 33111 70232 13669 13696 7092 6775
is_linear=0
shrinkage=0.05


Tree=17
num_leaves=31
num_cat=0
split_feature=4 4 4 3 4 2 3 3 2 3 0 0 0 3 0 1 3 0 0 1 3 0 0 1 3 0 1 1 0 2
split_gain=2836.1 661.167 146.925 126.074 89.2126 84.1566 74.7616 72.2564 67.8534 66.2539 60.7077 62.6203 60.6572 57.3191 47.2428 46.7922 43.1303 54.5417 42.6134 39.4511 39.3108 39.9659 34.0966 27.7075 25.1676 47.8876 25.325 24.7246 24.62 24.5562
threshold=0.021545727445611455 0.12434338181419292 0.22664007796528282 0.011512858657931233 0.048871217257474876 0.00090755247468638108 0.060799449985668587 -0.080832136933883802 -0.00013784826539829905 0.14408908034722676 70.541267940012816 21.238041425057308 13.297224523132494 -0.044198565714360004 58.267834184596872 84.567641153958235 -0.040457639684526307 37.59891541407908 7.1784829322600254 22.874295757950943 -0.04946696691118025 38.499992193607312 32.893030657653973 99.999999999999901 0.032588512744975116 61.481235275863803 53.341484499311555 36.764140131824831 38.944155668658347 -0.099877018735269718
decision_type=2 2 2 2 2 2 2 2 2 2 2 2 2 2 2 2 2 2 2 2 2 2 2 2 2 2 2 2 2 2
left_child=5 3 6 4 -2 8 10 18 -1 15 11 13 -6 -3 16 19 28 -18 -4 -9 22 -22 -13 -11 25 -5 -27 -23 -14 -19
right_child=1 2 7 24 12 -7 -8 9 -10 23 -12 20 14 -15 -16 -17 17 29 -20 -21 21 27 -24 -25 -26 26 -28 -29 -30 -31
leaf_value=-0.033602667993013202 -0.016178609171121211 -0.0034158590843415466 -0.013367853112062978 0.0015927371541798211 -0.027700038031244059 -0.026896543910085585 0.010126738030361031 -0.026179915483047645 -0.049207875457269894 0.014296664721053565 -0.015019386896420737 0.0023564108986477037 0.0005251200533049823 -0.034839497187403104 -0.031392487616531344 -0.020032133533913254 -0.013914735338978995 0.0028808909038542468 0.016128670704100661 0.0065332761084944853 -0.0055787760065694686 0.042799623969398563 0.011898383892138251 -0.070478485816183253 0.0049763274151009102 0.060449168222874466 -0.011254825990130902 0.0027035836186966003 0.017452858018742374 -0.0049511447740712561
leaf_weight=1019.9805866554379 2075.3822458088398 554.92393194139004 126.79941077530384 3913.5503003448248 293.7492494136095 891.14897745847702 3391.6720735728741 92.757727593183517 2196.9827911034226 3117.4961083829403 501.96133622527122 1679.9571857750416 1437.3900170773268 196.50970095396042 165.01202726364136 170.39839981496334 1659.6319531947374 1094.7925731390715 3566.4759648740292 14356.712577551603 1557.8086120337248 38.536687955260277 2114.7087218612432 9.6681861281394941 2792.2130543887615 12.461243465542791 1042.9613564163446 16594.63449203968 252.53642183542252 11658.2221070081
leaf_count=8950 13696 3116 734 21408 2047 7092 16573 584 21178 14227 2883 8389 7990 1445 1080 1001 10137 6133 16147 70960 8541 201 10440 47 14477 74 6243 86474 1356 66697
internal_value=-4.99011e-05 0.00218119 0.00567244 -0.00417644 -0.0064063 -0.0404935 0.00319216 0.00875316 -0.04426 0.00742901 0.00218008 0.00255979 -0.00518169 -0.0116336 -0.00477506 0.0060161 -0.0045023 -0.00538839 0.015116 0.00632328 0.00304489 0.00207925 0.00767401 0.0140346 0.00117806 -0.000956298 -0.0104082 0.00279648 0.00305474 -0.0042788
internal_weight=78577 74468.9 48071 26397.9 18636.7 4108.11 26630.7 21440.3 3216.96 17747 23239 22737.1 16561.3 751.434 16267.6 14619.9 16102.6 14412.6 3693.28 14449.5 21985.6 18191 3794.67 3127.16 7761.19 4968.97 1055.42 16633.2 1689.93 12753
internal_count=430320 393100 241762 151338 109136 37220 138062 103700 30128 86819 121489 118606 95440 4561 93393 72545 92313 82967 16881 71544 114045 95216 18829 14274 42202 27725 6317 86675 9346 72830
is_linear=0
shrinkage=0.05


Tree=18
num_leaves=31
num_cat=0
split_feature=4 4 4 3 2 4 2 3 3 1 0 0 3 1 0 3 0 0 0 3 3 4 2 4 3 3 1 0 0 2
split_gain=2638.87 595.997 131.727 114.882 83.3293 82.8424 68.0099 67.022 66.6541 56.801 55.9853 55.9119 54.1068 45.3326 43.8263 43.6651 57.8622 40.803 33.0485 64.0477 58.0269 31.8007 28.3762 27.6 26.8922 26.8382 38.7502 26.5829 24.5021 24.0991
threshold=0.021545727445611455 0.12434338181419292 0.22664007796528282 0.01050000740150118 0.00090755247468638108 0.048871217257474876 -0.00013784826539829905 0.060799449985668587 -0.11678705972479987 1.1273136815498506 70.541267940012816 13.297224523132494 0.18641388230816688 19.828812735801225 96.530916967286956 -0.031172972390933924 42.719947510537729 55.370351056395698 30.870740991682833 -0.064871288227155641 -0.04946696691118025 0.62643400538360383 -0.45823941705147747 0.67434489275062492 -0.17553328346582472 -0.01910177997822218 48.711562780485899 41.855754357855957 10.461248292596453 0.011101458952469848
decision_type=2 2 2 2 2 2 2 2 2 2 2 2 2 2 2 2 2 2 2 2 2 2 2 2 2 2 2 2 2 2
left_child=4 3 7 5 6 -2 -1 9 21 -3 18 -7 13 -10 22 27 -17 -18 19 -11 -20 24 -15 -14 -4 26 -24 29 -6 -13
right_child=1 2 8 -5 28 11 -8 -9 12 10 -12 15 23 14 -16 16 17 -19 20 -21 -22 -23 25 -25 -26 -27 -28 -29 -30 -31
leaf_value=-0.032745567469253799 -0.015742381411244916 -0.045619611091335138 0.030736332048526962 0.00096825715949904368 -0.036362813292693391 -0.026810028885373524 -0.048596551556424034 0.0095783874904526271 -0.021297462591670761 0.0041418116141156694 -0.014389615199448197 -0.0020287725993547129 0.020182505099031647 -0.0048900189703414872 -0.028379739602025458 -0.011899350401687533 -0.003368940287567017 -0.020281576577096685 0.010206991827512557 -0.013068902593946601 0.0021781403543829599 0.0044355354572735931 0.0088505682731160832 0.0072131464518102352 0.016169773221583496 0.0059961899732355484 0.023150527024854567 0.015433673554194081 -0.019258572773086274 0.015754972985611577
leaf_weight=994.98698402941227 2015.7982124239206 62.274168387055397 431.49080386757851 8117.7065826654434 347.43935338407755 288.46246618032455 2115.4611110389233 3406.1657904088497 144.98149241507053 1257.8070948123932 497.84101811051369 2556.5021625310183 1171.2310947924852 491.41372103989124 88.201034545898438 3041.114653557539 9453.9730897396803 370.60259780287743 2573.6023242920637 947.96405160427094 17920.376600265503 408.65665765106678 4552.4719334542751 631.33510975539684 1192.5688016116619 11869.877577349544 528.76969364285469 281.17783495783806 526.92478124797344 205.83834603428841
leaf_count=8950 13439 453 1848 44270 2906 2047 21178 16573 900 6250 2883 14554 5267 2493 528 18114 53935 2244 12637 5819 93447 1885 22011 2882 5248 58030 2608 1552 4186 1183
internal_value=-4.99925e-05 0.00207015 0.00537617 -0.00397873 -0.0396925 -0.00618359 -0.0435261 0.00302795 0.00828713 0.00206871 0.00219673 -0.004994 0.00738801 0.00654646 0.00677674 -0.00459844 -0.00587248 -0.00400692 0.00256049 -0.00325476 0.00318639 0.0169028 0.00695451 0.0156401 0.0200399 0.00729788 0.0103387 0.000787254 -0.0260552 -0.0007036
internal_weight=78493 74508.2 48177 26331.2 3984.81 18213.5 3110.45 26666 21511 23259.9 23197.6 16197.7 19478.3 17675.7 17530.7 15909.2 12865.7 9824.58 22699.8 2205.77 20494 2032.72 17442.5 1802.57 1624.06 16951.1 5081.24 3043.52 874.364 2762.34
internal_count=430320 393100 241762 151338 37220 107068 30128 138062 103700 121489 121036 93629 94719 86570 85670 91582 74293 56179 118153 12069 106084 8981 85142 8149 7096 82649 24619 17289 7092 15737
is_linear=0
shrinkage=0.05


Tree=19
num_leaves=31
num_cat=0
split_feature=4 4 4 3 2 4 2 3 0 3 0 1 3 0 1 1 3 0 0 3 3 0 0 2 2 2 2 3 1 0
split_gain=2454.94 537.284 118.143 104.638 82.405 74.0493 68.1393 62.4842 62.9888 60.0454 53.7898 52.7848 50.3327 48.6895 41.28 37.0159 35.4504 71.2594 35.1145 34.1102 38.653 47.9612 32.1238 31.0154 27.8426 29.5284 25.4467 23.8063 27.9778 23.528
threshold=0.021545727445611455 0.12434338181419292 0.22664007796528282 0.020497353695347123 0.00090755247468638108 0.048871217257474876 -0.00013784826539829905 0.044432206632135408 70.541267940012816 -0.10420340812717981 13.297224523132494 1.1273136815498506 0.14408908034722676 57.216128660428502 87.847539225560013 22.874295757950943 -0.04946696691118025 33.252005285879477 32.893030657653973 0.0095404042405953671 -0.042282532338044271 32.893030657653973 0.17332857082200806 0.0041630930396393349 -0.094594513080997034 0.00071762074649950336 0.1472327806114189 0.10673193330335849 62.412866371210555 10.461248292596453
decision_type=2 2 2 2 2 2 2 2 2 2 2 2 2 2 2 2 2 2 2 2 2 2 2 2 2 2 2 2 2 2
left_child=4 3 7 5 6 23 -1 8 11 22 -7 -3 14 19 15 -11 18 -18 -13 20 -12 -22 -4 -2 -23 -26 -14 28 -9 -6
right_child=1 2 9 -5 29 10 -8 27 -10 12 13 16 26 -15 -16 -17 17 -19 -20 -21 21 24 -24 -25 25 -27 -28 -29 -30 -31
leaf_value=-0.031897562538438021 -0.017580431405455451 -0.044723191820206086 -0.038428157307398493 0.0025974003700435905 -0.035492908934230516 -0.02593857073379352 -0.047993142495450905 0.010281361295340454 -0.02278722702454938 -0.017833114587510728 0.0034388453077432539 0.001646045363984465 0.015967391112838094 -0.014804063552232329 -0.022841209605541618 0.0062103034580193936 -0.014709114212364024 0.0017225274934689477 0.010685920105101956 0.0025582541179095309 -0.017285311680945149 0.0029454123441783088 0.015643200483622565 -0.0047056169380370189 -0.0068922475440210546 -0.0017139881775769116 0.006569216428818251 0.016368702714819439 0.0025993961503350269 -0.018552456683199065
leaf_weight=970.98452913761139 1620.2922289222479 60.394294202327728 27.770937323570251 5154.3552724272013 338.38945182412863 283.37777191400528 2036.9513560459018 2346.9461978524923 260.44956442713737 161.74043989181519 1495.8780818581581 2162.2583196014166 2041.176897212863 985.38478383421898 125.3717605471611 15587.078727290034 688.25605604052544 15965.435443803668 2134.8773159682751 2124.2616799622774 753.7736806422472 1199.5126311928034 2521.2112364321947 657.62729500234127 7713.6018576174974 4280.9255555123091 1112.9784447848797 685.77608650922775 2394.5169741362333 519.81556041538715
leaf_count=8950 10891 453 200 27255 2906 2047 21178 11711 1570 988 8226 11021 9078 5959 769 76340 4343 83303 10440 11796 4741 6755 11129 4360 44554 24754 5196 3210 12011 4186
internal_value=-4.99107e-05 0.00196488 0.00509613 -0.00378961 -0.0388982 -0.00534877 -0.0427974 0.00287251 0.00165072 0.00784753 -0.00431908 0.00195365 0.00688216 -0.00398887 0.00573588 0.00596338 0.0020882 0.00104345 0.00613718 -0.00338225 -0.00419936 -0.00501854 0.0150541 -0.0138635 -0.00431774 -0.00504409 0.0126511 0.00766124 0.00640184 -0.0252321
internal_weight=78411.4 74545.2 48276.2 26269 3866.14 21114.6 3007.94 26698.9 21271.7 21577.3 18836.7 21011.2 19028.3 18553.3 15874.2 15748.8 20950.8 16653.7 4297.14 17568 15443.7 13947.8 2548.98 2277.92 13194 11994.5 3154.16 5427.24 4741.46 858.205
internal_count=430320 393100 241762 151338 37220 124083 30128 138062 111130 103700 108832 109560 92371 106785 78097 77328 109107 87646 21461 100826 89030 80804 11329 15251 76063 69308 14274 26932 23722 7092
is_linear=0
shrinkage=0.05


Tree=20
num_leaves=31
num_cat=0
split_feature=4 4 3 4 2 3 3 3 0 0 0 1 1 2 3 0 2 3 1 2 0 4 3 3 0 0 3 3 2 3
split_gain=2283.33 486.286 134.746 103.968 81.4087 75.1974 79.835 68.6778 65.8776 57.3966 49.5874 41.5149 40.1473 40.0726 38.7059 37.5884 34.6347 32.9056 32.1395 30.4027 29.7503 29.4207 33.8123 28.9268 34.1443 27.7857 64.0935 34.6533 33.7455 27.6261
threshold=0.021545727445611455 0.1648846647696332 0.019865985883344598 0.068026277308878072 0.00090755247468638108 -0.070707284407790824 0.10315819129964483 1.543852531286487e-05 20.022804967521903 22.166913506749705 57.909056833430789 87.847539225560013 14.938497386152969 -0.094594513080997034 -0.046224794388686256 64.794915460766461 0.038432610260073226 0.063956589020652863 73.480043359379536 0.035283386255498143 45.672706502370012 0.67434489275062492 0.22750658697957829 -0.056920710352224867 33.617225511389798 41.680581076757498 -0.032563061129265734 -0.031172972390933924 0.0015853121573083015 -2.0268581378484376e-05
decision_type=2 2 2 2 2 2 2 2 2 2 2 2 2 2 2 2 2 2 2 2 2 2 2 2 2 2 2 2 2 2
left_child=4 2 3 15 7 12 8 29 -7 14 13 -10 -3 23 -5 20 17 18 -4 21 -2 22 -8 -11 -25 26 28 -27 -15 -1
right_child=1 5 16 9 -6 6 19 -9 11 10 -12 -13 -14 25 -16 -17 -18 -19 -20 -21 -22 -23 -24 24 -26 27 -28 -29 -30 -31
leaf_value=-0.035587335256106696 -0.013079836485851147 -0.0090021465008242318 0.0046276405175581436 -0.0047069944376657282 -0.024424478649118096 -0.020134025647921591 0.014765006664758785 -0.030425373921919296 0.0042666040079884834 0.020631147728640845 -0.015588592602769014 -0.022703038335653528 0.012270732026806428 -0.0027814105864188386 -0.027031719545689864 -0.031856116109661346 -0.0014746831483173281 0.014178725609520965 -0.012221963154702966 0.0073408869637513743 -0.0058357574038271328 -0.0011682078038537183 0.038669280654048593 -0.021228007125907875 0.0045702649253306403 0.010638327686405659 -0.011331289295301342 -0.0013109854340233292 0.01038815709763952 -0.050088451001327208
leaf_weight=412.27883334457874 2390.3388442099094 231.23636664450169 5615.7227665781975 401.8807347714901 842.69832502305508 283.80354466289282 1991.3375922590494 881.93421190977097 23265.173495471478 258.24025820195675 623.11778572201729 143.57042168080807 5429.7200676053762 3379.5410879850388 375.62028912454844 182.01122486591339 2822.371791601181 872.78700232505798 298.02844229340553 3558.4194312393665 3481.7740667462349 263.23275363445282 159.80398592352867 137.05994249880314 1996.5992148518562 636.74804182350636 2338.5813602656126 12872.422038391232 568.20442508161068 1615.1334319859743
leaf_count=3941 15335 1300 29558 2457 7092 1959 9190 8466 116601 1307 3780 939 24786 18372 2717 1280 14607 4257 1738 16536 21543 1181 690 800 10835 3388 13599 71226 3119 17721
internal_value=-4.97156e-05 0.00186508 -0.00196524 -0.0036332 -0.0381091 0.00612096 0.00511323 -0.0420729 0.00381089 -0.00213302 -0.00167766 0.00410119 0.0114018 -0.00128698 -0.0154923 -0.0094782 0.00318017 0.00511602 0.00377849 0.0102793 -0.00878458 0.01461 0.0165408 0.00482599 0.00291306 -0.00202562 -0.0047717 -0.00074776 -0.000885897 -0.0471396
internal_weight=78329.4 74577.3 39251 29642.1 3752.04 35326.3 29665.3 2909.35 23692.5 23588 22810.5 23408.7 5660.96 22187.4 777.501 6054.12 9608.91 6786.54 5913.75 5972.79 5872.11 2414.37 2151.14 2391.9 2133.66 19795.5 6286.33 13509.2 3947.75 2027.41
internal_count=430320 393100 219918 169758 37220 173182 147096 30128 119499 131600 126426 117540 26086 122646 5174 38158 50160 35553 31296 27597 36878 11061 9880 12942 11635 109704 35090 74614 21491 21662
is_linear=0
shrinkage=0.05


Tree=21
num_leaves=31
num_cat=0
split_feature=4 4 4 3 2 4 3 3 3 0 3 1 0 3 0 3 0 0 0 3 0 4 3 0 4 0 2 2 2 2
split_gain=2123.2 440.636 96.0351 89.7226 81.1071 67.2104 61.529 54.5995 53.0277 55.8704 51.3464 47.5233 45.4468 42.6262 37.0749 36.3469 46.9852 36.0798 35.8196 29.6131 64.6031 28.7495 25.0048 35.8483 24.8202 35.6285 31.5187 24.7837 24.8676 22.7689
threshold=0.021545727445611455 0.12434338181419292 0.22664007796528282 0.01050000740150118 0.0091996398023015246 0.048871217257474876 1.543852531286487e-05 -2.0268581378484376e-05 0.044432206632135408 70.541267940012816 -0.11678705972479987 1.1273136815498506 13.297224523132494 0.18641388230816688 13.297224523132494 -0.031172972390933924 42.719947510537729 96.530916967286956 55.370351056395698 -0.06668692610119846 30.403749590155694 1.0131070765735728 -0.034802131070973123 39.965584921355003 1.1399553972510212e-07 49.54882804446693 -0.0036991939467815476 -0.45823941705147747 0.038432610260073226 0.15808814486505099
decision_type=2 2 2 2 2 2 2 2 2 2 2 2 2 2 2 2 2 2 2 2 2 2 2 2 2 2 2 2 2 2
left_child=4 3 8 5 6 -2 7 -1 9 11 21 -3 -7 14 -12 -14 -17 27 -18 -13 -21 -4 -22 -24 25 -8 -26 -16 -29 -15
right_child=1 2 10 -5 -6 12 24 -9 -10 -11 13 19 15 29 17 16 18 -19 -20 20 22 -23 23 -25 26 -27 -28 28 -30 -31
leaf_value=-0.033444567260439755 -0.014150685991804472 -0.043504939053807472 0.015930001207222242 0.00090519260223507884 -0.015904708459020932 -0.024502458536767826 0.10604230101979845 -0.049615401592418527 0.0069873747765337117 -0.021747985892110314 -0.022100797520572459 0.0073107578787903922 0.00090879714594277775 0.017978942834624482 -0.0051483418249488235 -0.010659322050001125 -0.0029022284101657362 -0.026685901925049157 -0.018913610433712692 -0.011653033598313817 0.005511022549119342 -0.01138534234100139 -0.0099291711787208459 0.0015093226590980058 0.0064923001042529703 -0.035431530891488552 -0.0286863716088426 0.0073537348499434262 0.0030544572094775872 0.0065006687802116967
leaf_weight=784.84668428450823 1965.9512485414743 57.863999091088772 1954.6219562441111 8119.8018037825823 394.12136389315128 275.15227845311165 4.4824874252080908 1558.5938955694437 5456.1300912350416 256.14585326611996 120.55349507927895 2234.7198797464371 3038.5261269807816 1121.7015842497349 495.20079191029072 2991.0438458025455 9403.5039800554514 85.469128787517548 362.7795098721981 926.22541452944279 3762.6960927844048 101.32243020832539 722.03661242127419 13342.077222764492 97.306370317935944 618.86453205347061 184.20796624571085 12512.167622193694 4599.9665184468031 702.7056235820055
leaf_count=7348 13439 453 8455 44270 3279 2047 30 17789 26932 1570 785 10804 17289 4893 2503 18114 53935 528 2244 5771 19260 526 3862 69410 849 6313 1612 60586 22168 3256
internal_value=-4.94164e-05 0.00177038 0.00459366 -0.00345934 -0.0373246 -0.00542415 -0.0399235 -0.0441996 0.00258932 0.00146282 0.0070659 0.00174532 -0.00435664 0.00627882 0.00553332 -0.00400571 -0.00517625 0.00572161 -0.00349699 0.00187008 0.00122174 0.0145838 0.00189067 0.000922083 -0.0288492 -0.0344142 -0.0165267 0.00587892 0.00619803 0.0135579
internal_weight=78250.8 74608.4 48451.6 26156.8 3642.42 18037 3248.3 2343.44 26757.9 21301.8 21693.7 21045.6 16071 19637.8 17813.4 15795.9 12757.3 17692.8 9766.28 20987.8 18753 2055.94 17826.8 14064.1 904.861 623.347 281.514 17607.3 17112.1 1824.41
internal_count=430320 393100 241762 151338 37220 107068 33941 25137 138062 111130 103700 109560 93629 94719 86570 91582 74293 85785 56179 109107 98303 8981 92532 73272 8804 6343 2461 85257 82754 8149
is_linear=0
shrinkage=0.05


Tree=22
num_leaves=31
num_cat=0
split_feature=4 4 4 2 3 2 0 3 3 1 4 0 1 0 2 3 0 0 3 4 1 0 3 2 1 3 2 1 0 0
split_gain=1974.04 398.262 100.878 79.4847 74.2636 68.7104 68.3711 59.4371 55.4786 48.4542 42.6706 39.2192 38.9755 39.9608 38.2371 35.6928 41.7543 33.4885 31.2293 28.108 27.4585 27.2063 26.2416 26.0013 25.9806 25.3086 28.5249 26.0083 23.8812 23.3509
threshold=0.021545727445611455 0.1157619778663478 0.17887808792686188 0.00090755247468638108 0.013552843883195914 -0.00013784826539829905 57.216128660428502 -0.080832136933883802 0.1195417041918091 33.192128396994342 0.048871217257474876 13.297224523132494 76.874729245336837 20.022804967521903 0.27307058416272839 0.074604496719089128 67.525406495810273 7.1784829322600254 0.031828715744924095 0.14429713222084051 1.1273136815498506 47.726108268379328 0.02437874548758957 0.34555357040326207 99.999999999999901 -0.025630935069391011 -0.39018308280293085 48.830152243456787 76.595548629190716 10.461248292596453
decision_type=2 2 2 2 2 2 2 2 2 2 2 2 2 2 2 2 2 2 2 2 2 2 2 2 2 2 2 2 2 2
left_child=3 4 9 5 6 -1 10 17 12 14 21 -12 13 -9 20 16 18 -4 23 -16 -3 -2 -18 -11 28 27 -27 -15 -10 -5
right_child=1 2 7 29 -6 -7 -8 8 24 15 11 -13 -14 25 19 -17 22 -19 -20 -21 -22 -23 -24 -25 -26 26 -28 -29 -30 -31
leaf_value=-0.029370784509626172 -0.017271325205936491 -0.052195004516882818 -0.012264745518371568 -0.033410600170191748 0.00097542852078744417 -0.04623800333654756 -0.023266063651476977 -0.014795143010275458 0.006360164923350866 0.0012094146818056881 -0.024141513646802504 -0.0036641956756307201 -0.010851614810732942 0.0060992401717403968 0.17649805697687782 0.010895468004030755 -0.038418055442877061 0.011986487303064015 0.0066833583637697959 0.0078697475694660835 -0.0080757340158464103 -0.005093599729258342 -0.006439661344363779 -0.021140134588628706 -0.069164571792252549 -0.011061871902367716 0.0037599929132929493 0.016573204038432529 0.01352134662146072 -0.016044909681511774
leaf_weight=903.42657991498709 1063.2672802656889 36.432008072733879 147.15954586863518 317.71528124064207 6059.2617425918579 1820.340402930975 523.14745952188969 271.85319364070892 2215.507222533226 13659.315309241414 237.68820358812809 14390.455293282866 435.32007449865341 5281.0422686338425 4.7744328305125219 1050.9274419099092 69.15767528116703 4358.9702446460724 2926.3706839829683 5.1226433366537094 1102.220110706985 806.56003294885159 886.5145503282547 131.38778983056545 10.354734659194945 331.54622650146484 15510.344308435917 667.62137788534164 2453.3994716405869 495.45353474467993
leaf_count=8950 7359 285 868 2906 32878 21178 3517 1854 10146 71943 1807 83818 2444 26070 28 4962 459 19494 14844 26 6406 5460 4790 692 52 1730 76836 3304 11028 4186
internal_value=-4.90175e-05 0.00168064 0.00412444 -0.036548 -0.00377815 -0.0406434 -0.00547035 0.00587607 0.00499424 0.00133176 -0.00490605 -0.00399693 0.00396396 0.0042563 -0.00863682 0.00194325 0.0014109 0.0111945 0.00199199 0.0892175 -0.00948736 -0.0120184 -0.00875379 0.000996484 0.00994774 0.00449398 0.00344979 0.00727474 0.0101232 -0.0228299
internal_weight=78172.7 74635.7 51555.3 3536.94 23080.4 2723.77 17021.1 31683.1 27177 19872.2 16498 14628.1 22497.7 22062.4 1148.55 18723.7 17672.7 4506.13 16717.1 9.89708 1138.65 1869.83 955.672 13790.7 4679.26 21790.6 15841.9 5948.66 4668.91 813.169
internal_count=430320 393100 258261 37220 134839 30128 101961 153826 133464 104435 98444 85625 112238 109794 6745 97690 92728 20362 87479 54 6691 12819 5249 72635 21226 107940 78566 29374 21174 7092
is_linear=0
shrinkage=0.05


Tree=23
num_leaves=31
num_cat=0
split_feature=4 4 4 2 2 0 3 3 0 0 3 1 2 3 2 0 3 4 0 3 0 4 1 3 0 0 3 1 1 2
split_gain=1834.52 359.78 84.6881 79.0322 77.1901 71.349 73.7021 67.1232 48.3953 45.2548 38.2375 46.6779 38.1567 34.7082 32.8255 28.5462 33.4048 32.8745 41.1681 28.2665 27.5716 27.1621 32.9545 26.4293 49.7945 26.2133 25.2362 31.7105 29.7488 31.8831
threshold=0.021545727445611455 0.14332298531280133 0.068026277308878072 0.00032546575925504175 -8.0856104669072322e-06 1.1997345107281066 -0.11678705972479987 0.096565828690091449 28.884126990312051 76.595548629190716 0.039511067618196068 66.816344415483613 0.035283386255498143 -0.042282532338044271 0.30590567679179576 20.022804967521903 -0.06668692610119846 0.38480890575957644 53.516591008299564 0.011025361161348899 59.571775336669909 0.62643400538360383 78.971091284877446 -0.036286303960926337 41.680581076757498 70.976250087920718 0.044432206632135408 60.171228170975958 61.736928119436762 -0.012209131231169406
decision_type=2 2 2 2 2 2 2 2 2 2 2 2 2 2 2 2 2 2 2 2 2 2 2 2 2 2 2 2 2 2
left_child=3 2 19 4 -1 -3 -7 9 13 14 11 23 21 -4 15 -8 -17 26 -19 20 -2 22 -9 -10 -25 -5 27 -18 29 -28
right_child=1 5 8 25 -6 6 7 12 10 -11 -12 -13 -14 -15 -16 16 17 18 -20 -21 -22 -23 -24 24 -26 -27 28 -29 -30 -31
leaf_value=-0.030040300984597569 -0.0085061910718889685 -0.028269557935530088 -0.0035659523701385 -0.024317511687785703 -0.047875095230082376 0.013547049807367904 -0.0070226890972373383 0.012852575507872535 0.0036817309120093914 -0.0094511056111487093 0.0048182851924784449 -0.018652934642573667 0.0056183526185155409 -0.020894990905172189 -0.0060988029499437334 0.0083864664616276254 0.0026220673966133746 0.019163379460446085 0.0040086183114261802 -0.001258937995342467 -0.031213686694819155 0.0001621490702347515 0.030121791984302322 -0.0081770324857249853 -0.00063572426556547917 0.054645473354239631 -0.012826153330096155 -0.0056251481705675514 0.0024218366634976944 0.010789019809328995
leaf_weight=1041.5513001009822 5078.2875171899796 164.07316279411316 678.54639907926321 930.67290613800287 1453.0920664742589 2261.4541794061661 590.65896879136562 2173.4560866504908 2644.585151180625 677.73635049164295 2887.6500790417194 381.00427901744843 3954.8551522195339 503.25451313704252 848.79623553156853 3920.2800278514624 17910.420290097594 724.44255073368549 1174.905554369092 1472.3676518052816 137.29298233985901 349.48013205826283 316.4804410636425 2532.6058181375265 16129.612820267677 10.630318418145178 150.99425819516182 1246.6701474785805 3075.8630963712931 2675.6085090041161
leaf_count=10779 32580 1217 4043 8560 17793 9764 3555 9978 14419 3815 14645 2380 18300 3533 4208 18272 90963 3446 5670 8585 1019 1560 1430 14950 89354 88 750 6448 15079 13137
internal_value=-4.84817e-05 0.00159547 -0.00236371 -0.0357707 -0.0404288 0.00463829 0.00476668 0.00426766 -0.00106203 0.0033358 -0.000586759 -0.00130642 0.00879328 -0.0109453 0.00360394 0.00386564 0.00407392 0.0034468 0.00978889 -0.00737684 -0.00910393 0.0132154 0.0150476 -0.000996233 -0.00165914 -0.0234258 0.00296611 0.00208537 0.00582464 0.00952752
internal_weight=78097.3 74661.4 32445.2 3435.95 2494.64 42216.2 42052.1 39790.6 25757.3 32996.4 24575.5 21687.8 6794.27 1181.8 32318.6 31469.8 30879.2 26958.9 1899.35 6687.95 5215.58 2839.42 2489.94 21306.8 18662.2 941.303 25059.6 19157.1 5902.47 2826.6
internal_count=430320 393100 185508 37220 28572 207592 206375 196611 143324 165343 135748 121103 31268 7576 161528 157320 153765 135493 9116 42184 33599 12968 11408 118723 104304 8648 126377 97411 28966 13887
is_linear=0
shrinkage=0.05


Tree=24
num_leaves=31
num_cat=0
split_feature=4 4 4 1 3 2 4 3 3 1 3 0 0 3 2 0 1 3 0 0 4 1 1 3 0 4 0 2 2 2
split_gain=1704.28 326.656 82.1501 79.5057 63.6811 55.8441 50.7456 49.6768 51.6726 42.2147 40.7645 36.8705 36.5365 34.1926 33.1596 32.9497 31.518 30.9685 26.6566 25.6074 30.1441 25.4655 25.4339 24.3731 27.0387 27.8033 33.0106 29.0779 24.0867 29.7064
threshold=0.021545727445611455 0.1157619778663478 0.17887808792686188 99.999999999999901 0.0095404042405953671 0.0091996398023015246 0.048871217257474876 -0.059859775932419507 0.090866658794086716 33.192128396994342 1.543852531286487e-05 96.530916967286956 30.870740991682833 -2.0268581378484376e-05 0.27307058416272839 13.297224523132494 14.938497386152969 0.10673193330335849 83.589930984706754 50.33332735863187 0.38480890575957644 1.1273136815498506 99.999999999999901 -0.15199212660291719 42.379147663663254 0.37063379593330997 27.782821902393916 0.032419323586703588 0.035283386255498143 -0.0070396732246962431
decision_type=2 2 2 2 2 2 2 2 2 2 2 2 2 2 2 2 2 2 2 2 2 2 2 2 2 2 2 2 2 2
left_child=3 4 9 5 6 10 -2 16 11 14 13 12 -9 -1 21 -8 -4 18 -11 20 -14 -3 28 -18 25 -25 -27 -28 29 -10
right_child=1 2 7 -5 -6 -7 15 8 22 17 -12 -13 19 -15 -16 -17 23 -19 -20 -21 -22 -23 -24 24 -26 26 27 -29 -30 -31
leaf_value=-0.031041866668747239 -0.012954444266282046 -0.05119827448118669 -0.0087111677281326485 -0.051148274087298967 0.00041331986805439143 -0.013436782372883597 -0.022891143282695682 -0.011963048982344271 -0.0084081839358650986 0.0017564238550942879 -0.024978301059389692 -0.033928945749647429 0.0048802124060093287 -0.045929582126099516 0.080913993187415489 -0.0038727902000676726 0.016741484173616487 0.019939999587159443 -0.015075631376158714 0.0018833635004578794 0.018008001323335594 -0.0076230847530817563 -0.067249057483467142 0.0095007020381761703 0.023988477858724995 -0.015626883198435654 0.0031781371981555065 0.048583709566786107 0.0055381720518878821 0.012715926983281929
leaf_weight=729.75522557646036 1876.8244187831879 34.586923606693745 237.99894826114178 620.31432807445526 7298.15929787606 376.4862140417099 231.62931863218546 398.48519757390022 176.97460028529167 18280.793512411416 794.67141354829073 67.81037050485611 6095.7256711870432 817.95221292972565 10.358012601733206 13575.588994778693 1060.491598829627 231.53364293277264 238.28376406431198 11107.494739696383 471.07139845192432 1095.62852242589 11.237420707941054 4015.1677198559046 265.59376800060272 247.41750602424145 745.84071381390095 37.009844675660133 4078.3001911193132 2793.4752911180258
leaf_count=7348 13136 285 1379 7931 40200 3279 1807 2528 835 95204 8259 476 30521 10403 54 79696 4492 1065 1421 55189 2221 6406 60 18630 1227 1107 3364 169 18885 12743
internal_value=-4.78687e-05 0.00151469 0.00371939 -0.0349959 -0.00344503 -0.0313107 -0.00524041 0.00529544 0.00428353 0.00119895 -0.0341835 0.00287108 0.00300916 -0.0389099 -0.00814042 -0.00419184 0.00915364 0.00176705 0.00153985 0.00334672 0.00582194 -0.00895658 0.00791279 0.00982095 0.00843908 0.00762055 0.00029322 0.00532472 0.00803262 0.0114574
internal_weight=78022.7 74683.5 51701.3 3339.18 22982.2 2718.87 15684 31810.1 25200.6 19891.2 2342.38 18140.6 18072.8 1547.71 1140.57 13807.2 6609.52 18750.6 18519.1 17674.3 6566.8 1130.22 7059.99 6371.52 5311.03 5045.44 1030.27 782.851 7048.75 2970.45
internal_count=430320 393100 258261 37220 134839 29289 94639 153826 123458 104435 26010 90935 90459 17751 6745 81503 30368 97690 96625 87931 32742 6691 32523 28989 24497 23270 4640 3533 32463 13578
is_linear=0
shrinkage=0.05


Tree=25
num_leaves=31
num_cat=0
split_feature=4 4 1 1 3 3 3 0 2 0 0 3 0 3 3 3 4 0 2 2 2 2 3 4 1 1 2 0 0 2
split_gain=1582.85 294.679 79.5745 74.4096 79.5298 84.2985 58.0469 61.8357 53.895 51.6157 50.4363 42.4556 47.7263 40.0262 37.4154 34.3296 33.4441 32.2409 30.5751 29.8338 27.6857 26.0119 23.829 46.9995 45.7833 36.0273 25.6185 22.4652 22.0713 27.2979
threshold=0.021545727445611455 0.1157619778663478 99.999999999999901 1.1273136815498506 -0.083714372785724675 0.090866658794086716 0.013552843883195914 57.216128660428502 0.0091996398023015246 76.595548629190716 32.133909938935062 -0.034802131070973123 39.166858611232634 1.543852531286487e-05 -0.042282532338044271 -2.0268581378484376e-05 0.048871217257474876 13.297224523132494 0.035283386255498143 -0.0070396732246962431 0.30590567679179576 0.0041630930396393349 0.043399926828136433 0.4010470472819942 49.285711472388051 60.171228170975958 -0.052121734613989452 48.849394086002093 44.199073269861948 0.0028555491107998478
decision_type=2 2 2 2 2 2 2 2 2 2 2 2 2 2 2 2 2 2 2 2 2 2 2 2 2 2 2 2 2 2
left_child=2 6 8 -3 -5 9 7 16 13 10 14 -12 -13 15 -6 -1 21 -18 19 -7 22 -2 23 25 -24 -14 -26 28 -15 -30
right_child=1 3 -4 4 5 18 -8 -9 -10 -11 11 12 20 27 -16 -17 17 -19 -20 -21 -22 -23 24 -25 26 -27 -28 -29 29 -31
leaf_value=-0.030226565615557366 -0.014439521174016673 -0.037471571211574517 -0.050760094914759052 0.0098030150599092859 -0.0016224369225323846 -0.0074232080919222829 0.00091652067206767678 -0.021925515431170342 -0.012895140569163977 -0.010712589180215762 0.0062603751856159379 -0.011060032335980021 0.0018640576184960609 -0.058026667106369834 -0.017336693652096856 -0.045375013326517562 -0.022106993172061579 -0.0031535401380763245 0.0050601571659934577 0.012675323634115178 -0.0062947777464252251 -0.0013155902487054106 0.042168686338298816 0.015303331152307923 -0.0087489148593732479 -0.0059511319144012476 0.0051965216351002527 -0.02531528179919218 0.15017382303554927 -0.029804299286995191
leaf_weight=712.41341541707516 1298.0840644538403 110.42796128243208 594.46008952707052 4719.3163892924786 2028.7475559711456 196.4485484957695 6062.1660015285015 510.42365939170122 372.7815934792161 775.06845025718212 7098.7057705968618 688.60615302622318 17681.894185259938 3.9248139709234229 465.75637950748205 787.33039443939924 227.9485175088048 14303.669612199068 4329.8784966468811 3071.0292602926493 914.64121901988983 532.41746059060097 81.750727117061615 610.48849646747112 345.48195733129978 1608.8402863442898 7043.7914375662804 766.30146206170321 5.7237372174859029 3.334050714969635
leaf_count=7348 9136 889 7931 21144 10942 931 32878 3517 3279 4445 35183 3735 91201 34 3153 10403 1807 83818 20026 13970 4589 3683 398 2897 1726 8466 34566 8156 44 25
internal_value=-4.71555e-05 0.00143807 -0.0342262 0.00352819 0.00361583 0.00299379 -0.00328 -0.00478777 -0.0305198 0.00206269 0.00231942 0.00279488 0.00194587 -0.0334027 -0.00455649 -0.0381791 -0.00425315 -0.00345085 0.0078156 0.011467 0.00226248 -0.0106223 0.00254842 0.00164453 0.00495621 0.00121227 0.00454451 -0.0242103 0.041012 0.0839263
internal_weight=77951.9 74705.6 3246.27 51770.9 51660.4 46941.1 22934.7 16872.5 2651.81 39343.8 38568.7 36074.2 28975.5 2279.03 2494.5 1499.74 16362.1 14531.6 7597.36 3267.48 28286.9 1830.5 27372.2 19901.2 7471.02 19290.7 7389.27 779.284 12.9826 9.05779
internal_count=430320 393100 37220 258261 257372 236228 134839 101961 29289 201301 196856 182761 147578 26010 14095 17751 98444 85625 34927 14901 143843 12819 139254 102564 36690 99667 36292 8259 103 69
is_linear=0
shrinkage=0.05


Tree=26
num_leaves=31
num_cat=0
split_feature=4 4 3 1 0 2 4 1 3 0 3 3 3 2 3 0 2 0 3 2 3 0 0 3 2 1 3 4 3 2
split_gain=1469.64 266.966 88.5563 79.5629 71.4309 51.9603 50.0967 45.5898 51.0447 43.6414 42.748 41.1229 39.2158 35.8624 34.4203 30.5847 29.3826 28.209 26.6928 26.6749 23.8493 28.9926 28.5272 29.9565 23.7971 24.7263 23.3233 23.2105 22.8038 21.8395
threshold=0.021545727445611455 0.1648846647696332 0.028714707845258248 99.999999999999901 62.367975405088977 0.0091996398023015246 0.068026277308878072 1.1273136815498506 -0.11678705972479987 30.870740991682833 -0.042282532338044271 0.14408908034722676 1.543852531286487e-05 -0.094594513080997034 -2.0268581378484376e-05 46.232682219644026 0.029956025079748424 99.20407837042687 -0.056920710352224867 -1.4758710729227238 -0.025069051846167062 38.499992193607312 30.870740991682833 -0.042282532338044271 -0.0095460782244319621 77.968573709957354 -0.22408330490816017 0.37063379593330997 0.014606491304090814 1.5701696072175328
decision_type=2 2 2 2 2 2 2 2 2 2 2 2 2 2 2 2 2 2 2 2 2 2 2 2 2 2 2 2 2 2
left_child=3 2 4 5 6 12 15 -3 -9 10 26 17 14 18 -1 -2 -4 19 -11 -10 22 -22 23 27 25 -23 -8 -21 -6 -13
right_child=1 7 16 -5 28 -7 9 8 11 13 -12 29 -14 -15 -16 -17 -18 -19 -20 20 21 24 -24 -25 -26 -27 -28 -29 -30 -31
leaf_value=-0.029419089398721083 -0.010556814261346345 -0.032592927202081907 0.0061330734826209547 -0.050378251866104742 -0.029491280574589936 -0.012370762287405974 0.12969853581903298 0.011832000330304526 -0.015715229084298222 0.024727130400706496 -0.018311514799203114 0.010215109286193267 -0.02346052936278626 -0.0012562662351869177 -0.044820421996768223 -0.0032673858568809514 -0.00065559810000331679 -0.027665777478518623 0.0037976802825441512 0.0039848030890568967 -0.027062778871923068 -0.00035453341690778518 0.0071705892652413408 -0.021670354875171847 0.0036580164079563107 -0.043417267616678308 -0.0033321194728547945 -0.01381652855697507 -0.011613742487038621 -0.0088974670218840389
leaf_weight=695.79685503989458 2478.0983265712857 82.701441369950771 4365.3160420209169 569.64609048515558 234.79214545339346 369.24633035063744 3.3029918670654288 2268.0139051675797 178.26913930475712 163.72201034426689 693.92913072556257 3205.5837717801332 764.49671236425638 20852.294055446982 757.96581763774157 3431.7390000373125 2510.5817977786064 72.463397860527039 2191.6757642179728 1844.5393626689911 81.507581047713757 3778.4090835899115 7549.3105791062117 140.22912357747555 16134.97953376174 33.631383329629898 1326.1571572870016 203.29437647759914 742.33330020308495 156.77644963562489
leaf_count=7348 16407 675 22283 7931 1739 3279 19 9713 901 801 4906 14186 8259 115415 10403 21461 12766 493 11913 9264 468 18943 36427 997 79222 202 7602 968 4606 723
internal_value=-4.65013e-05 0.00136532 -0.00149547 -0.0334615 -0.00259795 -0.0297373 -0.00218026 0.00448746 0.00457349 -0.00120969 -0.0082522 0.00408029 -0.0326281 -0.000595681 -0.0374491 -0.00632397 0.00365434 0.00349292 0.00525247 0.00356832 0.00368381 0.00269698 0.0057136 0.000686675 0.00281858 -0.000734451 -0.00300161 0.00221761 -0.0159095 0.00932395
internal_weight=77880.8 74723.7 38993.9 3157.15 32118 2587.51 31140.9 35729.7 35647 25231.1 2023.39 33379 2218.26 23207.7 1453.76 5909.84 6875.9 30016.6 2355.4 29944.2 29765.9 20028.5 9737.37 2188.06 19947 3812.04 1329.46 2047.83 977.125 3362.36
internal_count=430320 393100 219918 37220 184869 29289 178524 173182 172507 140656 12527 162794 26010 128129 17751 37868 35049 147885 12714 147392 146491 98835 47656 11229 98367 19145 7621 10232 6345 14909
is_linear=0
shrinkage=0.05


Tree=27
num_leaves=31
num_cat=0
split_feature=4 4 1 0 3 3 3 2 0 0 4 3 3 3 3 4 2 0 2 2 3 1 1 0 2 2 0 2 0 4
split_gain=1363.91 242.926 79.4981 65.013 65.3423 70.166 51.2958 50.0172 45.4326 41.7328 40.9329 38.4114 35.5822 34.4629 29.4705 28.0235 27.4406 26.9377 26.0226 25.0979 27.1526 34.2712 26.7469 23.3373 21.277 20.8687 23.6713 21.0187 20.6981 20.847
threshold=0.021545727445611455 0.1157619778663478 99.999999999999901 0.17332857082200806 -0.083714372785724675 0.090866658794086716 0.0095404042405953671 0.0091996398023015246 76.595548629190716 32.133909938935062 0.048871217257474876 1.543852531286487e-05 -0.04946696691118025 -2.0268581378484376e-05 -0.042282532338044271 0.35242990764214471 0.035283386255498143 13.297224523132494 -0.0070396732246962431 0.34555357040326207 0.038567516333090829 60.359269053701787 49.966631204000286 53.516591008299564 0.0013275905370358557 -0.094594513080997034 54.583103370980929 0.00062665637574897735 48.849394086002093 1.1399553972510212e-07
decision_type=2 2 2 2 2 2 2 2 2 2 2 2 2 2 2 2 2 2 2 2 2 2 2 2 2 2 2 2 2 2
left_child=2 6 7 -3 -5 8 10 11 9 14 -2 13 -11 -1 -6 19 18 -12 -7 20 21 -14 -22 -17 -10 -19 27 -27 -13 -30
right_child=1 3 -4 4 5 16 -8 -9 24 12 17 28 15 -15 -16 23 -18 25 -20 -21 22 -23 -24 -25 -26 26 -28 -29 29 -31
leaf_value=-0.028619609265166247 -0.011627894638037718 -0.035315617224730263 -0.050001641175690094 0.008861064723599479 -0.0016046636748888066 -0.0071294781116970742 0.00046118031501815793 -0.011863418799190001 -0.025980391524730542 0.0070353975152590582 -0.020936054682009347 0.039485713543433248 0.0013404166898372796 -0.044264936578035881 -0.015716700355428308 0.013852783410883291 0.0044863867154258733 0.0027211149288912237 0.011661690066218732 -0.0077874863651228561 0.029413192324748056 -0.0077828054418269295 0.0040088057254109282 0.0035344796488174534 -0.0058013373831878774 -0.0052134709584351936 -0.017479011212668594 -0.00081323817426255771 -0.029724188039967733 -0.011842393097705302
leaf_weight=679.88214119523764 1838.0704210400581 109.40119485557079 545.84278590232134 4745.5803734362125 2024.7477419152856 195.92215205729008 7291.972026951611 365.87342937290668 166.76639795303345 3900.8066661208868 222.55304402858019 13.139832571148871 20491.347181603312 729.8198402300477 452.66344549506903 847.24123103916645 4346.7134936451912 1263.0197270438075 3089.8168075978756 700.98527106642723 105.06508482992649 1083.817629262805 7474.3317147940397 1551.4773154109716 602.88093091547489 7736.5249114483595 318.63300687074661 4180.3342196047306 494.0538466796279 243.23453412950039
leaf_count=7348 13136 923 7931 21159 10919 931 40200 3279 1052 18670 1807 103 105909 10403 3127 4002 20026 7220 13970 3546 515 5769 36888 7462 3393 45729 2008 24739 5771 2385
internal_value=-4.57356e-05 0.00129628 -0.0326982 0.00318794 0.00326929 0.00270511 -0.00299923 -0.0289591 0.00185515 0.00209479 -0.00462099 -0.0318547 0.00252497 -0.0367194 -0.00418316 0.00197948 0.00709296 -0.00368235 0.0105412 0.00156173 0.00178652 0.000882116 0.00436096 0.00717896 -0.0101737 -0.00339788 -0.00402952 -0.00366991 -0.0227164 -0.0238249
internal_weight=77812.5 74740.7 3071.85 51889.6 51780.2 47034.6 22851.1 2526 39402.1 38632.5 15559.1 2160.13 36155.1 1409.7 2477.41 32254.3 7632.45 13721.1 3285.74 29855.5 29154.6 21575.2 7579.4 2398.72 769.647 13498.5 12235.5 11916.9 750.428 737.288
